tree
version=v4
num_class=1
num_tree_per_iteration=1
label_index=0
max_feature_idx=5
objective=binary sigmoid:1
feature_names=total_assets monthly_income product_count app_login_count financial_repurchase_count investment_monthly_count
feature_infos=[3268.01657733003:3896045.6423127302] [0:49772.560319597593] none [2:29] [0:21.38793918976172] [0:21.38793918976172]
tree_sizes=447 658 447 445 759 655 763 757 657 658 551 554 979 449 959 765 1492 975 1708 1089 1601 1279 1516 2375 1717 1090 1278 1391 1085 1288 1197 1397 1398 1208 1299 1205 1300 1202 1190 1741 1210 1303 992 1304 1541 1299 1100 1415 1099 1969 1758 1529 1656 1981 1535 882 1868 1540 1550 1318 1554 2095 1318 1002 1111 1316 1109 1875 1649 1332 1649 1109 1879 1322 1115 1438 1118 1327 1118 1216 1010 1331 1011 1220 1006 1548 1545 894 1102 893 1099 1435 787 1439 1440 789 998 788 889 790

Tree=0
num_leaves=3
num_cat=0
split_feature=0 0
split_gain=723.669 1.81274
threshold=959670.81293466047 652370.18731845764
decision_type=2 2
left_child=1 -1
right_child=-2 -3
leaf_value=-3.7161843674476027 0.0097389679803838725 -3.5298882006762033
leaf_weight=19.375190868973739 0.53677969425916572 0.53677969425916572
leaf_count=758 21 21
internal_value=-3.61349 -3.71116
internal_weight=0 19.912
internal_count=800 779
is_linear=0
shrinkage=1


Tree=1
num_leaves=5
num_cat=0
split_feature=0 0 0 0
split_gain=36.2681 1.20166e-05 3.55271e-15 2.22045e-16
threshold=900192.02515728585 652370.18731845764 310710.28140101471 432790.79670440702
decision_type=2 2 2 2
left_child=1 2 -1 -4
right_child=-2 -3 3 -5
leaf_value=-0.10243265920501204 0.19433177273366592 -0.10293082372852916 -0.10243265920501213 -0.10243265920501199
leaf_weight=15.765713751316079 5.3328642435371867 0.49793272465467353 0.97376467287540325 0.83465543389320374
leaf_count=680 24 18 42 36
internal_value=0 -0.102446 -0.102433 -0.102433
internal_weight=0 18.0721 17.5741 1.80842
internal_count=800 776 758 78
is_linear=0
shrinkage=0.1


Tree=2
num_leaves=3
num_cat=0
split_feature=0 0
split_gain=31.0166 8.82978e-06
threshold=900192.02515728585 652370.18731845764
decision_type=2 2
left_child=1 -1
right_child=-2 -3
leaf_value=-0.10219581926657006 0.17617960028134058 -0.10264415057406809
leaf_weight=15.936710085719827 5.2952880933880797 0.45174236968159753
leaf_count=758 24 18
internal_value=0 -0.102208
internal_weight=0 16.3885
internal_count=800 776
is_linear=0
shrinkage=0.1


Tree=3
num_leaves=3
num_cat=0
split_feature=0 0
split_gain=26.8172 6.494e-06
threshold=900192.02515728585 652370.18731845764
decision_type=2 2
left_child=1 -1
right_child=-2 -3
leaf_value=-0.10198249600705123 0.16220351742039171 -0.10238621472724828
leaf_weight=14.448758345097303 5.1819015070796004 0.40973069518804628
leaf_count=758 24 18
internal_value=0 -0.101994
internal_weight=0 14.8585
internal_count=800 776
is_linear=0
shrinkage=0.1


Tree=4
num_leaves=6
num_cat=0
split_feature=0 0 0 0 4
split_gain=23.365 4.77906e-06 1.77636e-15 1.77636e-15 1.77636e-15
threshold=900192.02515728585 652370.18731845764 507798.34326208307 57230.123281460001 10.571597740048446
decision_type=2 2 2 2 2
left_child=1 2 3 -1 -5
right_child=-2 -3 -4 4 -6
leaf_value=-0.10179028541035001 0.15100690833092609 -0.10215398517849227 -0.10179028541034951 -0.10179028541035003 -0.10179028541034979
leaf_weight=3.9222507663071147 5.0178464502096167 0.37153955921530801 0.36285139247775156 8.0518451854586566 0.76026006042957384
leaf_count=227 24 18 21 466 44
internal_value=0 -0.1018 -0.10179 -0.10179 -0.10179
internal_weight=0 13.4687 13.0972 12.7344 8.81211
internal_count=800 776 758 737 510
is_linear=0
shrinkage=0.1


Tree=5
num_leaves=5
num_cat=0
split_feature=0 0 0 0
split_gain=20.4699 3.51948e-06 3.55271e-15 1.11022e-16
threshold=900192.02515728585 652370.18731845764 397935.8267174944 507798.34326208307
decision_type=2 2 2 2
left_child=1 2 -1 -4
right_child=-2 -3 3 -5
leaf_value=-0.10161701566844483 0.1417296789606495 -0.10194481281225153 -0.10161701566844435 -0.10161701566844453
leaf_weight=11.165337651968001 4.8217829279601565 0.33683754131198007 0.37583184242248613 0.32885286211967468
leaf_count=713 24 18 24 21
internal_value=0 -0.101626 -0.101617 -0.101617
internal_weight=0 12.2069 11.87 0.704685
internal_count=800 776 758 45
is_linear=0
shrinkage=0.1


Tree=6
num_leaves=6
num_cat=0
split_feature=0 0 0 0 0
split_gain=18.0056 2.5934e-06 1.77636e-15 1.77636e-15 1.11022e-16
threshold=900192.02515728585 652370.18731845764 483161.74917545513 322075.71836263937 397935.8267174944
decision_type=2 2 2 2 2
left_child=1 2 3 -1 -5
right_child=-2 -3 -4 4 -6
leaf_value=-0.10146077553968209 0.13380876194890731 -0.10175632886198199 -0.10146077553968152 -0.10146077553968158 -0.10146077553968172
leaf_weight=9.7344470247626234 4.6076105497777471 0.30531903728842813 0.34056374430656511 0.38313421234488565 0.29799327626824379
leaf_count=686 24 18 24 27 21
internal_value=0 -0.101469 -0.101461 -0.101461 -0.101461
internal_weight=0 11.0615 10.7561 10.4156 0.681127
internal_count=800 776 758 734 48
is_linear=0
shrinkage=0.1


Tree=7
num_leaves=6
num_cat=0
split_feature=0 0 0 0 0
split_gain=15.8844 1.91192e-06 1.77636e-15 1.77636e-15 1.77636e-15
threshold=900192.02515728585 652370.18731845764 507798.34326208307 408979.8383826096 250568.65532320799
decision_type=2 2 2 2 2
left_child=1 2 3 4 -1
right_child=-2 -3 -4 -5 -6
leaf_value=-0.10131982934939739 0.12685758030204811 -0.10158639686348343 -0.10131982934939664 -0.10131982934939664 -0.10131982934939712
leaf_weight=8.2025974709540517 4.385644108057023 0.27670268341898996 0.2699914528056987 0.2699914528056987 1.0028253961354501
leaf_count=638 24 18 21 21 78
internal_value=0 -0.101327 -0.10132 -0.10132 -0.10132
internal_weight=0 10.0221 9.74541 9.47541 9.20542
internal_count=800 776 758 737 716
is_linear=0
shrinkage=0.1


Tree=8
num_leaves=5
num_cat=0
split_feature=0 0 0 1
split_gain=14.0427 1.41008e-06 1.77636e-15 1.77636e-15
threshold=900192.02515728585 652370.18731845764 473107.7113492121 26673.543248753467
decision_type=2 2 2 2
left_child=1 2 3 -1
right_child=-2 -3 -4 -5
leaf_value=-0.10119266637518026 0.12060095113827088 -0.10143315764306099 -0.10119266637517964 -0.10119266637517965
leaf_weight=8.1879332996904779 4.1634591221809396 0.2507299482822426 0.31447254493832666 0.32611967623233873
leaf_count=703 24 18 27 28
internal_value=0 -0.101199 -0.101193 -0.101193
internal_weight=0 9.07926 8.82853 8.51405
internal_count=800 776 758 731
is_linear=0
shrinkage=0.1


Tree=9
num_leaves=5
num_cat=0
split_feature=0 0 0 0
split_gain=12.4332 1.04052e-06 1.77636e-15 8.88178e-16
threshold=900192.02515728585 652370.18731845764 456468.54294903559 342806.77028472786
decision_type=2 2 2 2
left_child=1 2 3 -1
right_child=-2 -3 -4 -5
leaf_value=-0.1010778767567812 0.11483804670233018 -0.10129491584360549 -0.10107787675678091 -0.10107787675678093
leaf_weight=7.3323326930403692 3.9465163350105295 0.22716369107365597 0.31650356948375691 0.34815392643213261
leaf_count=695 24 18 30 33
internal_value=0 -0.101084 -0.101078 -0.101078
internal_weight=0 8.22415 7.99699 7.68049
internal_count=800 776 758 728
is_linear=0
shrinkage=0.1


Tree=10
num_leaves=4
num_cat=0
split_feature=0 0 0
split_gain=11.0195 7.68127e-07 8.88178e-16
threshold=900192.02515728585 652370.18731845764 160094.82317454132
decision_type=2 2 2
left_child=1 2 -1
right_child=-2 -3 -4
leaf_value=-0.10097425194762183 0.1094204465198889 -0.10117017759862607 -0.1009742519476218
leaf_weight=5.0070512555539608 3.7386365979909897 0.20578675344586361 2.2359732706099749
leaf_count=524 24 18 234
internal_value=0 -0.10098 -0.100974
internal_weight=0 7.44881 7.24302
internal_count=800 776 758
is_linear=0
shrinkage=0.1


Tree=11
num_leaves=4
num_cat=0
split_feature=0 0 0
split_gain=9.77295 5.67136e-07 8.88178e-16
threshold=900192.02515728585 652370.18731845764 456468.54294903559
decision_type=2 2 2
left_child=1 2 -1
right_child=-2 -3 -4
leaf_value=-0.10088068348752899 0.10423868199050346 -0.10105757408724898 -0.10088068348752866
leaf_weight=6.2999169081449509 3.5423657968640327 0.18640046752989281 0.25961196050047863
leaf_count=728 24 18 30
internal_value=0 -0.100886 -0.100881
internal_weight=0 6.74593 6.55953
internal_count=800 776 758
is_linear=0
shrinkage=0.1


Tree=12
num_leaves=8
num_cat=0
split_feature=0 0 0 0 1 1 1
split_gain=8.67086 4.18898e-07 8.88178e-16 8.88178e-16 2.22045e-16 2.22045e-16 1.11022e-16
threshold=900192.02515728585 652370.18731845764 507798.34326208307 183999.02099606127 5834.2088128770265 17604.319495623557 13966.357066049242
decision_type=2 2 2 2 2 2 2
left_child=1 2 3 -1 -5 6 -6
right_child=-2 -3 -4 4 5 -7 -8
leaf_value=-0.10079617785191586 0.099213718695865913 -0.10095592144420465 -0.10079617785191536 -0.10079617785191564 -0.10079617785191575 -0.10079617785191552 -0.10079617785191536
leaf_weight=4.3884129822254181 3.3592617362737656 0.16882329806685437 0.16456548683345307 0.36831323243677605 0.54855162277817704 0.28211226314306259 0.18807484209537506
leaf_count=560 24 18 21 47 70 36 24
internal_value=0 -0.100801 -0.100796 -0.100796 -0.100796 -0.100796 -0.100796
internal_weight=0 6.10885 5.94003 5.77546 1.38705 1.01874 0.736626
internal_count=800 776 758 737 177 130 94
is_linear=0
shrinkage=0.1


Tree=13
num_leaves=3
num_cat=0
split_feature=0 0
split_gain=7.69466 3.09569e-07
threshold=900192.02515728585 652370.18731845764
decision_type=2 2
left_child=1 -1
right_child=-2 -3
leaf_value=-0.10071983157008318 0.094291173605017917 -0.10086413495114477
leaf_weight=5.3786282353103161 3.1901195347309113 0.15288958512246598
leaf_count=758 24 18
internal_value=0 -0.100724
internal_weight=0 5.53152
internal_count=800 776
is_linear=0
shrinkage=0.1


Tree=14
num_leaves=8
num_cat=0
split_feature=0 3 1 0 0 0 0
split_gain=6.86644 3.6157 0.483568 0.735062 0.00582257 2.03799e-07 8.88178e-16
threshold=986557.40761462634 5.5000000000000009 37457.623914265831 959670.81293466047 900192.02515728585 652370.18731845764 334073.33347362798
decision_type=2 2 2 2 2 2 2
left_child=1 -1 3 4 5 6 -3
right_child=-2 2 -4 -5 -6 -7 -8
leaf_value=0.27787605035882279 0.11757909587669829 -0.1006508654698763 0.06056087282256839 -0.27563922935639096 -0.11651059626231008 -0.10078122512111008 -0.1006508654698761
leaf_weight=0.25908068474382151 2.2888048589229584 4.3045726511627436 0.1721289725974201 0.25431165099143971 0.24325515329837788 0.12306509912013996 0.39833358861505974
leaf_count=22 18 670 8 2 2 16 62
internal_value=0 -0.0871937 -0.104404 -0.109738 -0.101415 -0.100654 -0.100651
internal_weight=0 5.75475 5.49567 5.32354 5.06923 4.82597 4.70291
internal_count=800 782 760 752 750 748 732
is_linear=0
shrinkage=0.1


Tree=15
num_leaves=6
num_cat=0
split_feature=0 3 0 1 0
split_gain=6.24121 1.41976e-06 1.47792e-07 1.81435e-08 8.88178e-16
threshold=900192.02515728585 5.5000000000000009 652370.18731845764 29430.678173433345 473107.7113492121
decision_type=2 2 2 2 2
left_child=1 -1 3 4 -3
right_child=-2 2 -4 -5 -6
leaf_value=-0.10087859230387593 0.086702415932116583 -0.10058854110461311 -0.10070632829770119 -0.10062659357875946 -0.10058854110461252
leaf_weight=0.18071632273495186 2.9016512408852577 4.0310143623501062 0.11143250763416279 0.12917699851095665 0.14541898854076851
leaf_count=21 24 693 16 21 25
internal_value=0 -0.100604 -0.100593 -0.10059 -0.100589
internal_weight=0 4.59776 4.41704 4.30561 4.17643
internal_count=800 776 755 739 718
is_linear=0
shrinkage=0.1


Tree=16
num_leaves=13
num_cat=0
split_feature=0 4 0 0 0 3 0 3 4 1 0 0
split_gain=5.55945 2.78344 2.63806 0.673783 0.00537608 9.23518e-07 1.08923e-07 1.41953e-08 1.33937e-08 1.77636e-15 8.88178e-16 2.22045e-16
threshold=986557.40761462634 1.8784608347338012 900192.02515728585 959670.81293466047 900192.02515728585 5.5000000000000009 652370.18731845764 10.500000000000002 13.1484975204511 26263.865439434278 150424.63466154705 456468.54294903559
decision_type=2 2 2 2 2 2 2 2 2 2 2 2
left_child=1 2 7 4 5 -3 8 -1 9 10 -7 -12
right_child=-2 3 -4 -5 -6 6 -8 -9 -10 -11 11 -13
leaf_value=-0.10057787407359148 0.11433105778343666 -0.10079713286557757 0.32806823720762346 -0.26776052305514997 -0.1160257123181707 -0.1005322277766517 -0.10063866245465176 -0.10053222777665115 -0.10056662486874542 -0.10053221445991459 -0.10053222777665172 -0.10053222777665097
leaf_weight=0.12300311028957356 1.9734323322772978 0.14069996960461173 0.29965749382972717 0.2588551640510558 0.23808877170085896 2.3223148528486508 0.10089264810085286 0.15271458216011524 0.11695252871140827 0.10531822452321637 0.97947973385453202 0.12111846171319485
leaf_count=22 18 18 2 2 2 441 16 29 21 20 186 23
internal_value=0 -0.0841182 0.122675 -0.11126 -0.101439 -0.100546 -0.100536 -0.100553 -0.100533 -0.100532 -0.100532 -0.100532
internal_weight=0 4.9591 0.575375 4.38372 4.12487 3.88678 3.74608 0.275718 3.64518 3.52823 3.42291 1.1006
internal_count=800 782 53 729 727 725 707 51 691 670 650 209
is_linear=0
shrinkage=0.1


Tree=17
num_leaves=8
num_cat=0
split_feature=0 3 0 4 1 4 1
split_gain=4.94409 7.76185e-07 8.07962e-08 9.93278e-09 1.33227e-15 8.88178e-16 5.55112e-17
threshold=900192.02515728585 5.5000000000000009 652370.18731845764 13.1484975204511 26263.865439434278 1.8149796497408255 1208.686480149601
decision_type=2 2 2 2 2 2 2
left_child=1 -1 3 4 5 6 -3
right_child=-2 2 -4 -5 -6 -7 -8
leaf_value=-0.10071815930840665 0.07802104490498557 -0.10048131288596668 -0.10057751218780392 -0.10051241955931033 -0.1004813095917358 -0.10048132112612439 -0.10048131489659906
leaf_weight=0.14818581147119436 2.6372483745217323 0.10010869149118828 0.091344125568866619 0.10587719315662969 0.095341692212968954 3.1082034558057785 0.1191776399500668
leaf_count=21 24 21 16 21 20 652 25
internal_value=0 -0.100494 -0.100485 -0.100482 -0.100481 -0.100481 -0.100481
internal_weight=0 3.76824 3.62005 3.52871 3.42283 3.32749 0.219286
internal_count=800 776 755 739 718 698 46
is_linear=0
shrinkage=0.1


Tree=18
num_leaves=15
num_cat=0
split_feature=0 3 1 1 0 0 0 0 0 0 4 4 3 1
split_gain=4.55957 2.50554 0.538064 0.558497 1.86795 0.484748 0.00249933 0.00205188 1.60588e-08 8.44158e-09 2.94209e-15 1.77636e-15 2.05391e-15 1.11022e-16
threshold=986557.40761462634 5.5000000000000009 37457.623914265831 17007.643021779761 959670.81293466047 959670.81293466047 900192.02515728585 900192.02515728585 567503.60149410507 308834.68491953332 11.503513184757669 1.8784608347338012 11.500000000000002 23728.609094819676
decision_type=2 2 2 2 2 2 2 2 2 2 2 2 2 2
left_child=1 -1 3 5 7 6 8 9 11 10 13 12 -3 -5
right_child=-2 2 -4 4 -6 -7 -8 -9 -10 -11 -12 -13 -14 -15
leaf_value=0.18352979542047643 0.11182335976922937 -0.10043528666202893 0.071738109016236049 -0.10043530694205588 -0.48953501195643956 0.11414778665440238 -0.11542809389360252 -0.11542809389360241 -0.10047645101380215 -0.10046939404798674 -0.10043528391837908 -0.1004353068792103 -0.10043530694205548 -0.10043530237668781
leaf_weight=0.32799602299928654 1.7019553631544111 0.094935124274345806 0.16640326613560308 0.16398525424301613 0.16254700720310211 0.10858089476823796 0.11579483002424229 0.1157948300242424 0.098300307057797798 0.092278590891510248 0.086303928401321173 2.5072479494847357 0.1078850356861949 0.090622454881668091
leaf_count=22 18 22 8 38 1 1 1 1 21 20 20 581 25 21
internal_value=0 -0.0819477 -0.104214 -0.112033 -0.191768 -0.0933264 -0.10103 -0.103603 -0.100437 -0.100443 -0.100435 -0.100435 -0.100435 -0.100435
internal_weight=0 4.23868 3.91068 3.74428 0.711532 3.03274 2.92416 0.548985 2.80837 0.43319 0.340912 2.71007 0.20282 0.254608
internal_count=800 782 760 752 101 651 650 100 649 99 79 628 47 59
is_linear=0
shrinkage=0.1


Tree=19
num_leaves=9
num_cat=0
split_feature=0 3 0 1 4 4 0 0
split_gain=4.04352 2.23138e-06 4.27975e-08 4.21005e-08 1.77636e-15 1.77636e-15 4.44089e-16 1.66533e-16
threshold=900192.02515728585 5.5000000000000009 652370.18731845764 29859.106845426719 11.581164741507173 1.8784608347338012 432790.79670440702 99753.692425230067
decision_type=2 2 2 2 2 2 2 2
left_child=1 -1 3 4 5 7 -7 -3
right_child=-2 2 -4 -5 -6 6 -8 -9
leaf_value=-0.10078016162297927 0.071849598934261169 -0.10039370329343295 -0.1004723323794994 -0.10046682891400205 -0.10039369412620547 -0.10039371006405058 -0.10039370300835788 -0.10039369773964571
leaf_weight=0.16078173555433783 2.4111681431531906 0.093749299412594911 0.074864191003143676 0.081008025677874573 0.078121967380866297 2.4414191176183526 0.10937350289896119 0.093748256331309676
leaf_count=21 24 24 16 18 20 625 28 24
internal_value=0 -0.100417 -0.100398 -0.100396 -0.100394 -0.100394 -0.100394 -0.100394
internal_weight=0 3.13307 2.97228 2.89742 2.81641 2.73829 2.55079 0.187498
internal_count=800 776 755 739 721 701 653 48
is_linear=0
shrinkage=0.1


Tree=20
num_leaves=14
num_cat=0
split_feature=0 4 0 1 0 0 3 0 3 1 4 0 0
split_gain=3.72517 2.27354 1.48656 0.500734 1.2253 0.0042798 1.4584e-06 3.33132e-08 2.86141e-08 4.88498e-15 8.88178e-16 4.44089e-16 4.44089e-16
threshold=986557.40761462634 1.8784608347338012 900192.02515728585 37457.623914265831 959670.81293466047 900192.02515728585 5.5000000000000009 652370.18731845764 10.500000000000002 26673.543248753467 11.36748083611217 473107.7113492121 294484.87981323327
decision_type=2 2 2 2 2 2 2 2 2 2 2 2 2
left_child=1 2 8 4 5 6 -3 9 -1 10 11 12 -8
right_child=-2 3 -4 -5 -6 -7 7 -9 -10 -11 -12 -13 -14
leaf_value=-0.10043393407366988 0.10983948661149033 -0.10070787137528087 0.25477233461811649 0.067097986536816617 -0.35653579591070172 -0.11477019677675444 -0.10035610104706355 -0.10042718720707432 -0.10035610608739763 -0.10035607359281247 -0.10035608809707559 -0.10035609432698839 -0.10035610043098131
leaf_weight=0.087595610646531319 1.4680067896842954 0.12516539543867278 0.30998080968856812 0.15274624014273275 0.20180954039096821 0.22426322102546681 2.0224767527543031 0.067768827080726513 0.1025380133651197 0.074245920171961077 0.070713049732148536 0.074249966302886494 0.17678944719955314
leaf_count=22 18 18 2 8 1 2 572 16 29 21 20 21 50
internal_value=0 -0.0784955 0.119746 -0.109573 -0.118457 -0.101513 -0.100375 -0.100358 -0.100392 -0.100356 -0.100356 -0.100356 -0.100356
internal_weight=0 3.69034 0.500114 3.19023 3.03748 2.83567 2.61141 2.48624 0.190134 2.41848 2.34423 2.27352 2.19927
internal_count=800 782 53 729 721 720 718 700 51 684 663 643 622
is_linear=0
shrinkage=0.1


Tree=21
num_leaves=11
num_cat=0
split_feature=0 4 4 1 0 0 3 0 4 0
split_gain=3.30109 1.97931 0.958125 0.448442 0.669917 0.00311401 1.07884e-06 2.46456e-08 4.44089e-15 8.88178e-16
threshold=986557.40761462634 1.8784608347338012 1.8149796497408255 37457.623914265831 959670.81293466047 900192.02515728585 5.5000000000000009 652370.18731845764 11.581164741507173 473107.7113492121
decision_type=2 2 2 2 2 2 2 2 2 2
left_child=1 2 -1 4 5 6 -3 8 9 -8
right_child=-2 3 -4 -5 -6 -7 7 -9 -10 -11
leaf_value=-0.03247092809117904 0.10881596938967475 -0.10064006443723042 0.24945698602883853 0.06180451495774273 -0.27960004994348819 -0.11316868122109824 -0.10032209999551273 -0.10038636562892739 -0.10032207671372195 -0.10032209115265581
leaf_weight=0.2360216130036864 1.3401614427566526 0.11332676373422312 0.24637732049450278 0.14942881558090437 0.22973753511905659 0.20564575493335713 2.0322214241605265 0.061343436362221726 0.089603555155917891 0.067205762024968752
leaf_count=49 18 18 4 8 1 2 635 16 28 21
internal_value=0 -0.0762615 0.111519 -0.106984 -0.115995 -0.101366 -0.100339 -0.100324 -0.100322 -0.100322
internal_weight=0 3.43091 0.482399 2.94851 2.79908 2.56935 2.3637 2.25037 2.18903 2.09943
internal_count=800 782 53 729 721 720 718 700 684 656
is_linear=0
shrinkage=0.1


Tree=22
num_leaves=13
num_cat=0
split_feature=0 3 1 0 4 4 4 1 0 0 0 0
split_gain=2.93684 1.01803e-06 1.9131e-07 1.71242e-08 9.44101e-09 5.73735e-10 1.55431e-15 4.44089e-16 1.11022e-16 1.11022e-16 1.11022e-16 2.77556e-17
threshold=900192.02515728585 5.5000000000000009 32156.968309321088 652370.18731845764 1.8784608347338012 1.3048967507091687 11.581164741507173 7284.1907945372404 314490.0275026139 145238.92768312129 119392.174381089 229041.39475523485
decision_type=2 2 2 2 2 2 2 2 2 2 2 2
left_child=1 -1 3 4 5 -3 7 8 9 10 -6 -11
right_child=-2 2 -4 -5 6 -7 -8 -9 -10 11 -12 -13
leaf_value=-0.10059556225787099 0.062712346939461983 -0.10031179632846982 -0.10048102634116481 -0.10034946058639277 -0.1002913516927687 -0.10032421075419627 -0.10029133585171018 -0.10029135126840172 -0.10029135311224967 -0.100291351692768 -0.10029135169276721 -0.10029135169276714
leaf_weight=0.1224227296188477 2.0864399969577789 0.083662008633838325 0.056503886356949695 0.055525211617350467 0.57643154216930259 0.06707188836298883 0.066619011107832082 1.0109252361580727 0.072415430331602693 0.1187622775323689 0.060829459223896265 0.057932818308472633
leaf_count=21 24 27 13 16 199 21 23 349 25 41 21 20
internal_value=0 -0.100315 -0.100299 -0.100295 -0.100293 -0.100317 -0.100291 -0.100291 -0.100291 -0.100291 -0.100291 -0.100291
internal_weight=0 2.3491 2.22668 2.17017 2.11465 0.150734 1.96392 1.8973 0.886372 0.813956 0.637261 0.176695
internal_count=800 776 755 742 726 48 678 655 306 281 220 61
is_linear=0
shrinkage=0.1


Tree=23
num_leaves=21
num_cat=0
split_feature=0 4 4 1 0 0 3 0 1 0 0 0 1 1 1 1 1 1 1 1
split_gain=2.73217 1.71254 0.638316 0.395782 0.445015 0.00269003 5.90498e-07 1.34985e-08 6.43929e-15 6.66134e-16 2.22045e-16 2.22045e-16 1.11022e-16 1.11022e-16 1.11022e-16 1.11022e-16 1.11022e-16 1.11022e-16 5.55112e-17 5.55112e-17
threshold=986557.40761462634 1.8784608347338012 1.8149796497408255 37457.623914265831 959670.81293466047 900192.02515728585 5.5000000000000009 652370.18731845764 26673.543248753467 483161.74917545513 62681.497324903779 294484.87981323327 13828.778900158561 9515.2925259283347 18947.287923578235 15507.54474907053 13586.133592960427 11623.440279200086 7554.2719593432184 13688.306109619049
decision_type=2 2 2 2 2 2 2 2 2 2 2 2 2 2 2 2 2 2 2 2
left_child=1 2 -1 4 5 6 -3 8 9 10 12 14 13 18 15 16 17 -12 -8 -13
right_child=-2 3 -4 -5 -6 -7 7 -9 -10 -11 11 19 -14 -15 -16 -17 -18 -19 -20 -21
leaf_value=-0.027553628154052118 0.10742636412116849 -0.10052339389309882 0.20514449804150831 0.058257558525114397 -0.24458170610325866 -0.11252072227584708 -0.10026355181271773 -0.10031609688248078 -0.10026351574871113 -0.10026354006233014 -0.10026355181262388 -0.10026355181271698 -0.10026355113070994 -0.10026355181271709 -0.10026354935825761 -0.10026355039713773 -0.1002635518127161 -0.10026355181193654 -0.10026355181271698 -0.10026354780230391
leaf_weight=0.21439199033193324 1.158315449953079 0.092884763143957882 0.26187226688489318 0.13794286502525199 0.24169373512268055 0.19778543710708607 0.32508817967027415 0.050257148453965672 0.055047947214916237 0.055053381947800406 0.6527980384416876 0.097002118127420545 0.0707851592451334 0.11011051246896386 0.078649685019627213 0.068163309944793582 0.052433577366173267 0.078650366282090545 0.097002118127420545 0.052432785043492913
leaf_count=49 18 18 4 8 1 2 124 16 21 21 249 37 27 42 30 26 20 30 37 20
internal_value=0 -0.0734742 0.100395 -0.106416 -0.115977 -0.101412 -0.100277 -0.100265 -0.100264 -0.100264 -0.100264 -0.100264 -0.100264 -0.100264 -0.100264 -0.100264 -0.100264 -0.100264 -0.100264 -0.100264
internal_weight=0 2.99005 0.476264 2.51378 2.37584 2.13414 1.93636 1.84347 1.79322 1.73817 1.68312 1.08013 0.602986 0.532201 0.930695 0.852045 0.783882 0.731448 0.42209 0.149435
internal_count=800 782 53 729 721 720 718 700 684 663 642 412 230 203 355 325 299 279 161 57
is_linear=0
shrinkage=0.1


Tree=24
num_leaves=15
num_cat=0
split_feature=0 4 4 1 0 0 3 0 1 0 0 1 4 1
split_gain=2.41907 1.49286 0.499285 0.357863 0.276441 0.00196251 4.36989e-07 9.98973e-09 4.21885e-15 2.22045e-16 2.22045e-16 1.11022e-16 5.55112e-17 1.38778e-17
threshold=986557.40761462634 1.8784608347338012 1.8149796497408255 37457.623914265831 959670.81293466047 900192.02515728585 5.5000000000000009 652370.18731845764 26673.543248753467 483161.74917545513 129559.24191463656 13270.041013690376 9.8287560302516699 16838.77668171022
decision_type=2 2 2 2 2 2 2 2 2 2 2 2 2 2
left_child=1 2 -1 4 5 6 -3 8 9 10 -8 -12 13 -13
right_child=-2 3 -4 -5 -6 -7 7 -9 -10 -11 11 12 -14 -15
leaf_value=-0.025049942082302035 0.10666993742763116 -0.10047334495625421 0.18026416565888723 0.053420017005189918 -0.2132120944715816 -0.1111882530303978 -0.10023840818656349 -0.10028592220890208 -0.1002383774073147 -0.10023840059685998 -0.10023840847879054 -0.10023840835535976 -0.10023840436467746 -0.10023840769289721
leaf_weight=0.21235143486410457 1.0551394522190092 0.084085345268250289 0.26783249527215958 0.13552522379904974 0.24904002249240864 0.1809982657432555 0.97757552214898147 0.045487534953281172 0.049821298802271374 0.049826218979433068 0.37726852158084512 0.073555497918277979 0.047454294050112367 0.047454998828470707
leaf_count=49 18 18 4 8 1 2 412 16 21 21 159 31 20 20
internal_value=0 -0.0710133 0.0894682 -0.104256 -0.114047 -0.101275 -0.100251 -0.10024 -0.100238 -0.100238 -0.100238 -0.100238 -0.100238 -0.100238
internal_weight=0 2.79828 0.480184 2.31809 2.18257 1.93353 1.75253 1.66844 1.62296 1.57314 1.52331 0.545733 0.168465 0.12101
internal_count=800 782 53 729 721 720 718 700 684 663 642 230 71 51
is_linear=0
shrinkage=0.1


Tree=25
num_leaves=9
num_cat=0
split_feature=0 3 1 4 4 0 1 0
split_gain=2.1802 6.93343e-07 3.99888e-07 6.66098e-08 8.25622e-09 7.39801e-09 1.11022e-15 2.22045e-16
threshold=900192.02515728585 5.5000000000000009 33363.780447196295 1.8784608347338012 1.3048967507091687 652370.18731845764 26263.865439434278 53011.657754010819
decision_type=2 2 2 2 2 2 2 2
left_child=1 -1 3 4 -3 6 7 -5
right_child=-2 2 -4 5 -6 -7 -8 -9
leaf_value=-0.10050623800005182 0.055939657670271564 -0.10026758415681143 -0.10052179805285731 -0.10021566483678704 -0.10031751025420942 -0.10025864734131769 -0.10021564930161989 -0.1002156645404837
leaf_weight=0.096801709383726453 1.7953813225030897 0.071862264536321052 0.046002072049304732 0.41874741436913587 0.061443012440577149 0.041169453877955564 0.045091878622770198 0.99854843062348664
leaf_count=21 24 27 10 195 21 16 21 465
internal_value=0 -0.100246 -0.100231 -0.100223 -0.100291 -0.100217 -0.100216 -0.100216
internal_weight=0 1.77967 1.68286 1.63686 0.133305 1.50356 1.46239 1.4173
internal_count=800 776 755 745 48 697 681 660
is_linear=0
shrinkage=0.1


Tree=26
num_leaves=11
num_cat=0
split_feature=0 4 4 1 0 0 3 0 1 0
split_gain=2.01796 1.30541 0.360695 0.320362 0.196934 0.00166517 2.39275e-07 5.47443e-09 5.10703e-15 2.22045e-16
threshold=986557.40761462634 1.8784608347338012 1.8149796497408255 37457.623914265831 959670.81293466047 900192.02515728585 5.5000000000000009 652370.18731845764 26673.543248753467 483161.74917545513
decision_type=2 2 2 2 2 2 2 2 2 2
left_child=1 2 -1 4 5 6 -3 8 9 -8
right_child=-2 3 -4 -5 -6 -7 7 -9 -10 -11
leaf_value=-0.020306364905312263 0.10566893119551 -0.10038716522336576 0.15889190758656679 0.050798434502381612 -0.19673648669475663 -0.11058688781150075 -0.10019510473116261 -0.10023396749668506 -0.1001950681784575 -0.1001950971805238
leaf_weight=0.1944618795532741 0.91385824978351582 0.068893992342054733 0.26592674851417542 0.12570369336754073 0.24993120133876789 0.17313736677169789 1.2476913813734425 0.037260367069393285 0.040805183700285741 0.040810992242768296
leaf_count=49 18 18 4 8 1 2 642 16 21 21
internal_value=0 -0.0685046 0.083201 -0.103704 -0.114154 -0.101323 -0.100205 -0.100196 -0.100195 -0.100195
internal_weight=0 2.44462 0.460389 1.98423 1.85853 1.6086 1.43546 1.36657 1.32931 1.2885
internal_count=800 782 53 729 721 720 718 700 684 663
is_linear=0
shrinkage=0.1


Tree=27
num_leaves=12
num_cat=0
split_feature=0 4 3 1 0 0 3 0 1 1 4
split_gain=1.79073 1.14835 0.309039 0.291847 0.129249 0.00121761 1.77126e-07 4.0533e-09 2.66454e-15 2.22045e-16 8.32667e-17
threshold=986557.40761462634 1.8784608347338012 5.5000000000000009 37457.623914265831 959670.81293466047 900192.02515728585 5.5000000000000009 652370.18731845764 26673.543248753467 15507.54474907053 10.533991214176099
decision_type=2 2 2 2 2 2 2 2 2 2 2
left_child=1 2 -1 4 5 6 -3 8 9 -8 -11
right_child=-2 3 -4 -5 -6 -7 7 -9 -10 10 -12
leaf_value=0.14683644031541151 0.10510046214474458 -0.10035019022843952 -0.01940994024743245 0.046402315979862718 -0.17946003481939593 -0.10947852126393161 -0.10017650137808787 -0.10021165254471075 -0.10017647238549834 -0.10017650129650042 -0.10017649654713612
leaf_weight=0.26077532209456045 0.83113731443881977 0.062359663657843956 0.19575380114838481 0.12394933542236675 0.24672505259513844 0.15816591680049885 0.99724635842721887 0.033721700310706981 0.036928562447428592 0.12663420580793172 0.042210119310766459
leaf_count=4 18 18 49 8 1 2 567 16 21 72 24
internal_value=0 -0.0663178 0.0755521 -0.10175 -0.112527 -0.101194 -0.100186 -0.100177 -0.100177 -0.100177 -0.100177
internal_weight=0 2.28447 0.456529 1.82794 1.70399 1.45727 1.2991 1.23674 1.20302 1.16609 0.168844
internal_count=800 782 53 729 721 720 718 700 684 663 96
is_linear=0
shrinkage=0.1


Tree=28
num_leaves=9
num_cat=0
split_feature=0 3 1 4 4 0 1 0
split_gain=1.64034 7.71464e-07 6.0913e-07 1.16642e-07 1.94351e-08 3.00084e-09 1.9984e-15 2.22045e-16
threshold=900192.02515728585 5.5000000000000009 37457.623914265831 1.8784608347338012 1.3751372382004565 652370.18731845764 26673.543248753467 483161.74917545513
decision_type=2 2 2 2 2 2 2 2
left_child=1 -1 3 4 -3 6 7 -5
right_child=-2 2 -4 5 -6 -7 -8 -9
leaf_value=-0.10050350653446666 0.050795446019947336 -0.10023262449526107 -0.10056975450395488 -0.10015967747292964 -0.10031586802405801 -0.1001914703406446 -0.10015965044740267 -0.10015967229815362
leaf_weight=0.079710097052157258 1.532332971692085 0.071779954014345893 0.039432188495993503 1.0218662403058258 0.046033929102122784 0.030518489540554472 0.033419671701267251 0.033424430643208214
leaf_count=21 24 31 7 642 17 16 21 21
internal_value=0 -0.100202 -0.100183 -0.100171 -0.100265 -0.100161 -0.10016 -0.10016
internal_weight=0 1.35619 1.27647 1.23704 0.117814 1.11923 1.08871 1.05529
internal_count=800 776 755 748 48 700 684 663
is_linear=0
shrinkage=0.1


Tree=29
num_leaves=11
num_cat=0
split_feature=0 4 1 4 0 0 3 0 1 0
split_gain=1.50226 1.00915 0.264312 0.228617 0.095076 0.00101865 9.69815e-08 2.22188e-09 1.66533e-15 1.11022e-16
threshold=986557.40761462634 1.8784608347338012 37457.623914265831 1.8149796497408255 959670.81293466047 900192.02515728585 5.5000000000000009 652370.18731845764 26673.543248753467 250568.65532320799
decision_type=2 2 2 2 2 2 2 2 2 2
left_child=1 3 4 -1 5 6 -3 8 9 -8
right_child=-2 2 -4 -5 -6 -7 7 -9 -10 -11
leaf_value=-0.014518177924773246 0.10436420596905593 -0.10028646657861025 0.044576494229867661 0.13322496232685663 -0.16986672994748869 -0.1089382955369205 -0.10014445715981364 -0.10017321443510363 -0.10014443303799377 -0.10014445674877165
leaf_weight=0.17960377596318799 0.72123064845800389 0.051077055279165395 0.11539371497929085 0.25125194527208805 0.24213287234306324 0.15063428878784169 0.80664131336379774 0.027619048021733761 0.030243730754591525 0.14836292527616024
leaf_count=49 18 18 8 4 1 2 560 16 21 103
internal_value=0 -0.0639488 -0.101108 0.0716377 -0.112648 -0.101242 -0.100152 -0.100145 -0.100144 -0.100144
internal_weight=0 2.00296 1.5721 0.430856 1.45671 1.21458 1.06394 1.01287 0.985248 0.955004
internal_count=800 782 729 53 721 720 718 700 684 663
is_linear=0
shrinkage=0.1


Tree=30
num_leaves=10
num_cat=0
split_feature=0 3 1 4 4 0 1 4 4
split_gain=1.34851 7.45268e-07 5.61704e-07 1.32973e-07 2.81958e-08 1.64562e-09 1.66533e-15 1.11022e-16 4.16334e-17
threshold=900192.02515728585 5.5000000000000009 37457.623914265831 1.8784608347338012 1.3751372382004565 652370.18731845764 26673.543248753467 9.6930607812616643 11.36748083611217
decision_type=2 2 2 2 2 2 2 2 2
left_child=1 -1 3 4 -3 6 7 -5 -9
right_child=-2 2 -4 5 -6 -7 -8 8 -10
leaf_value=-0.10049728772370672 0.046761751958077552 -0.10020740238905451 -0.10053872903458312 -0.1001306931833236 -0.10031234821921026 -0.100156708488398 -0.10013066785984659 -0.10013069282253061 -0.1001306875270456
leaf_weight=0.068774616811424827 1.3972785770893095 0.064030383713543193 0.037307943683117517 0.7990612203720957 0.042655547615140676 0.024994657491333783 0.027369229821488261 0.039105671108700335 0.026069454965181649
leaf_count=21 24 31 7 613 17 16 21 30 20
internal_value=0 -0.100178 -0.100158 -0.100144 -0.100249 -0.100131 -0.100131 -0.100131 -0.100131
internal_weight=0 1.12937 1.06059 1.02329 0.106686 0.9166 0.891606 0.864236 0.0651751
internal_count=800 776 755 748 48 700 684 663 50
is_linear=0
shrinkage=0.1


Tree=31
num_leaves=12
num_cat=0
split_feature=0 4 1 4 0 0 3 0 1 0 4
split_gain=1.26511 0.888196 0.240534 0.173916 0.0700478 0.000840978 5.30854e-08 1.2174e-09 1.88738e-15 4.44089e-16 2.22045e-16
threshold=986557.40761462634 1.8784608347338012 37457.623914265831 1.8149796497408255 959670.81293466047 900192.02515728585 5.5000000000000009 652370.18731845764 26673.543248753467 473107.7113492121 10.496385867740729
decision_type=2 2 2 2 2 2 2 2 2 2 2
left_child=1 3 4 -1 5 6 -3 8 9 10 -8
right_child=-2 2 -4 -5 -6 -7 7 -9 -10 -11 -12
leaf_value=-0.010186900871407745 0.1037520803505889 -0.10023434881778617 0.04308254171413517 0.12302846058179021 -0.16177412794472534 -0.10839947155435384 -0.10011824897685939 -0.10014176961131481 -0.10011822011521276 -0.10011823589593699 -0.10011824192718771
leaf_weight=0.16619163949508253 0.62740865349769581 0.041829053312539832 0.10763464914634813 0.23884463775902987 0.236041560769081 0.14296434819698334 0.71602864935994148 0.02261930366512388 0.024767626076936722 0.028309971326962113 0.037747033173218369
leaf_count=49 18 18 8 4 1 2 607 16 21 24 32
internal_value=0 -0.061596 -0.100361 0.0683685 -0.112709 -0.101291 -0.100124 -0.100119 -0.100118 -0.100118 -0.100118
internal_weight=0 1.76298 1.35794 0.405036 1.25031 1.01427 0.871302 0.829473 0.806853 0.782086 0.753776
internal_count=800 782 729 53 721 720 718 700 684 663 639
is_linear=0
shrinkage=0.1


Tree=32
num_leaves=12
num_cat=0
split_feature=0 4 1 3 0 0 3 0 1 0 4
split_gain=1.1246 0.784866 0.220709 0.161348 0.047854 0.000616491 3.93146e-08 9.01398e-10 1.22125e-15 4.44089e-16 3.33067e-16
threshold=986557.40761462634 1.8784608347338012 37457.623914265831 5.5000000000000009 959670.81293466047 900192.02515728585 5.5000000000000009 652370.18731845764 26673.543248753467 483161.74917545513 11.089849144525049
decision_type=2 2 2 2 2 2 2 2 2 2 2
left_child=1 3 4 -1 5 6 -3 8 9 10 -8
right_child=-2 2 -4 -5 -6 -7 7 -9 -10 -11 -12
leaf_value=0.11775281037945713 0.10338230917807958 -0.10021200862199763 0.039221076844338926 -0.011098553062592442 -0.15254713446300505 -0.1075365860155334 -0.10010698416730138 -0.10012825957808991 -0.10010695862284941 -0.10010696987005618 -0.10010697437542562
leaf_weight=0.22799285594373975 0.56962984800338734 0.037856503389775531 0.10647354926913966 0.1693808474810794 0.22580882906913757 0.13034437596797943 0.66183580434881151 0.020469413488171995 0.02241306786891073 0.02241626160684973 0.023483874392695725
leaf_count=4 18 18 8 49 1 2 620 16 21 21 22
internal_value=0 -0.0596045 -0.098492 0.0628298 -0.111302 -0.101166 -0.100113 -0.100108 -0.100107 -0.100107 -0.100107
internal_weight=0 1.64848 1.2511 0.397374 1.14463 0.918819 0.788475 0.750618 0.730149 0.707736 0.68532
internal_count=800 782 729 53 721 720 718 700 684 663 642
is_linear=0
shrinkage=0.1


Tree=33
num_leaves=10
num_cat=0
split_feature=0 3 1 4 4 0 1 1 4
split_gain=1.03579 1.13019e-06 6.01643e-07 1.58561e-07 3.59906e-08 6.68124e-10 4.44089e-16 1.11022e-16 1.38778e-17
threshold=900192.02515728585 5.5000000000000009 37457.623914265831 1.8784608347338012 1.3751372382004565 652370.18731845764 26673.543248753467 3678.5291534793946 4.8258698616518858
decision_type=2 2 2 2 2 2 2 2 2
left_child=1 -1 3 4 -3 6 7 8 -5
right_child=-2 2 -4 5 -6 -7 -8 -9 -10
leaf_value=-0.10058706633485021 0.043427986059135247 -0.10018367998631504 -0.10052899184542913 -0.10009678502719291 -0.10030822729766053 -0.10011604052483514 -0.10009676891367335 -0.10009678482988948 -0.10009678510960796
leaf_weight=0.058792811352759933 1.1875403299927709 0.056732002063654363 0.036640889942646027 0.094666673452593386 0.039256551535800099 0.018523636506870389 0.020282141864299774 0.51873356086434796 0.027047632320318371
leaf_count=21 24 31 7 98 17 16 21 537 28
internal_value=0 -0.100164 -0.100133 -0.100114 -0.100235 -0.100097 -0.100097 -0.100097 -0.100097
internal_weight=0 0.870676 0.811883 0.775242 0.0959886 0.679254 0.66073 0.640448 0.121714
internal_count=800 776 755 748 48 700 684 663 126
is_linear=0
shrinkage=0.1


Tree=34
num_leaves=11
num_cat=0
split_feature=0 4 1 3 0 0 3 0 1 0
split_gain=0.950483 0.69303 0.202607 0.124603 0.0357511 0.000503959 2.15138e-08 4.94548e-10 6.66134e-16 2.22045e-16
threshold=986557.40761462634 1.8784608347338012 37457.623914265831 5.5000000000000009 959670.81293466047 900192.02515728585 5.5000000000000009 652370.18731845764 26673.543248753467 483161.74917545513
decision_type=2 2 2 2 2 2 2 2 2 2
left_child=1 3 4 -1 5 6 -3 8 9 -8
right_child=-2 2 -4 -5 -6 -7 7 -9 -10 -11
leaf_value=0.11033999736948188 0.10292047933020865 -0.10017343428061408 0.038341182986003038 -0.0069172494525184189 -0.14711499096080563 -0.10706858567810003 -0.1000875704025531 -0.10010498510339903 -0.10008755167266117 -0.10008756139479165
leaf_weight=0.21390004456043232 0.49627532064914714 0.030993379652499931 0.099557844921946526 0.15724864730145782 0.21769340336322784 0.12332145124673843 0.56119557883357629 0.016762636601924896 0.018353645107708871 0.018356260610744357
leaf_count=4 18 18 8 49 1 2 642 16 21 21
internal_value=0 -0.0573112 -0.0976201 0.0606603 -0.111339 -0.101211 -0.100092 -0.100088 -0.100088 -0.100088
internal_weight=0 1.45738 1.08623 0.371149 0.986676 0.768983 0.645662 0.614668 0.597905 0.579552
internal_count=800 782 729 53 721 720 718 700 684 663
is_linear=0
shrinkage=0.1


Tree=35
num_leaves=10
num_cat=0
split_feature=0 3 1 4 4 0 1 1 1
split_gain=0.860644 1.24987e-06 5.22764e-07 1.28472e-07 2.61285e-08 3.66699e-10 1.11022e-16 1.11022e-16 2.77556e-17
threshold=900192.02515728585 5.5000000000000009 37457.623914265831 1.8784608347338012 1.3751372382004565 652370.18731845764 26673.543248753467 11168.10106680004 22655.099745071639
decision_type=2 2 2 2 2 2 2 2 2
left_child=1 -1 3 4 -3 6 7 -5 -9
right_child=-2 2 -4 5 -6 -7 -8 8 -10
leaf_value=-0.10062269828912836 0.040309754407598833 -0.10016502257082201 -0.10049709676830043 -0.10007922271953125 -0.10027695504957723 -0.10009498706216198 -0.10007921290706111 -0.10007922292864208 -0.10007922338113302
leaf_weight=0.05281560984440159 1.0843907780945299 0.050989003735594451 0.034453538712114096 0.36703064094763249 0.03528709162492305 0.015168899029958993 0.016608378093224019 0.14000900997780263 0.017402040015440434
leaf_count=21 24 31 7 464 17 16 21 177 22
internal_value=0 -0.100154 -0.100118 -0.100097 -0.100211 -0.10008 -0.100079 -0.100079 -0.100079
internal_weight=0 0.729764 0.676949 0.642495 0.0862761 0.556219 0.54105 0.524442 0.157411
internal_count=800 776 755 748 48 700 684 663 199
is_linear=0
shrinkage=0.1


Tree=36
num_leaves=11
num_cat=0
split_feature=0 4 1 3 0 0 3 0 1 0
split_gain=0.805797 0.612758 0.186558 0.0968342 0.0266472 0.000407464 1.17718e-08 2.71404e-10 3.33067e-16 5.55112e-17
threshold=986557.40761462634 1.8784608347338012 37457.623914265831 5.5000000000000009 959670.81293466047 900192.02515728585 5.5000000000000009 652370.18731845764 26673.543248753467 473107.7113492121
decision_type=2 2 2 2 2 2 2 2 2 2
left_child=1 3 4 -1 5 6 -3 8 9 -8
right_child=-2 2 -4 -5 -6 -7 7 -9 -10 -11
leaf_value=0.10404403365662705 0.10253075088446849 -0.10014188333393387 0.037675100403369334 -0.0029812044555726949 -0.14234228131641899 -0.10661210599180089 -0.10007168291824733 -0.10008593948365774 -0.1000716685562229 -0.10007167982362762
leaf_weight=0.19990575965493895 0.43332511559128772 0.025371018797159195 0.093224556650966406 0.14648753288201988 0.20898079872131348 0.11634742468595505 0.45738997601438314 0.013726565113756806 0.01502895716112107 0.017178448266349733
leaf_count=4 18 18 8 49 1 2 639 16 21 24
internal_value=0 -0.0550274 -0.0966463 0.0587837 -0.111309 -0.101254 -0.100075 -0.100072 -0.100072 -0.100072
internal_weight=0 1.29364 0.947248 0.346393 0.854023 0.645042 0.528695 0.503324 0.489597 0.474568
internal_count=800 782 729 53 721 720 718 700 684 663
is_linear=0
shrinkage=0.1


Tree=37
num_leaves=10
num_cat=0
split_feature=0 3 1 4 4 0 1 0 0
split_gain=0.718392 1.36348e-06 4.48617e-07 1.03798e-07 1.91896e-08 2.00958e-10 1.66533e-16 5.55112e-17 5.55112e-17
threshold=900192.02515728585 5.5000000000000009 37457.623914265831 1.8784608347338012 1.3751372382004565 652370.18731845764 26673.543248753467 473107.7113492121 272908.09128265065
decision_type=2 2 2 2 2 2 2 2 2
left_child=1 -1 3 4 -3 6 7 8 -5
right_child=-2 2 -4 5 -6 -7 -8 -9 -10
leaf_value=-0.1006615288311985 0.03753164363690361 -0.10014885128934053 -0.1004668265780411 -0.10006485615773847 -0.10024983380655508 -0.10007775221203348 -0.10006484460694974 -0.10006485267428128 -0.10006485571042059
leaf_weight=0.047809785697609186 0.99143698439002037 0.046006686403416097 0.032375182956457138 0.37114123470382765 0.031842458061873913 0.012421273742802441 0.01359964330913499 0.015544708876404911 0.042749111889861524
leaf_count=21 24 31 7 573 17 16 21 24 66
internal_value=0 -0.100149 -0.100105 -0.100083 -0.10019 -0.100065 -0.100065 -0.100065 -0.100065
internal_weight=0 0.61349 0.56568 0.533305 0.0778491 0.455456 0.443035 0.429435 0.41389
internal_count=800 776 755 748 48 700 684 663 639
is_linear=0
shrinkage=0.1


Tree=38
num_leaves=10
num_cat=0
split_feature=0 4 1 3 0 0 3 0 1
split_gain=0.685079 0.542536 0.172213 0.0756188 0.0198134 0.000326123 6.44031e-09 1.48955e-10 1.66533e-16
threshold=986557.40761462634 1.8784608347338012 37457.623914265831 5.5000000000000009 959670.81293466047 900192.02515728585 5.5000000000000009 652370.18731845764 25069.200606468999
decision_type=2 2 2 2 2 2 2 2 2
left_child=1 3 4 -1 5 6 -3 8 -8
right_child=-2 2 -4 -5 -6 -7 7 -9 -10
leaf_value=0.098589182966054331 0.10219999016633717 -0.1001160764101333 0.037188536233032768 0.00070098096225563002 -0.13812900888798482 -0.10617075942877213 -0.10005868280387104 -0.10007035448575115 -0.10005867401849365
leaf_weight=0.18638102337717988 0.3791334629058839 0.02076605474576354 0.087406026665121317 0.13686940795741975 0.19984152913093567 0.10948602855205536 0.38331672624917701 0.011240022431593388 0.017581140564288944
leaf_count=4 18 18 8 49 1 2 654 16 30
internal_value=0 -0.0527576 -0.0955776 0.0571418 -0.111212 -0.101295 -0.100062 -0.100059 -0.100059
internal_weight=0 1.15289 0.829638 0.32325 0.742232 0.54239 0.432904 0.412138 0.400898
internal_count=800 782 729 53 721 720 718 700 684
is_linear=0
shrinkage=0.1


Tree=39
num_leaves=15
num_cat=0
split_feature=0 4 1 4 0 0 3 0 0 1 1 1 1 1
split_gain=0.609785 0.479621 0.158848 0.0678618 0.0139131 0.000239672 4.76984e-09 1.10337e-10 5.55112e-17 5.55112e-17 2.77556e-17 3.46945e-17 6.93889e-18 6.93889e-18
threshold=986557.40761462634 1.8784608347338012 37457.623914265831 1.8149796497408255 959670.81293466047 900192.02515728585 5.5000000000000009 652370.18731845764 285324.50548210758 16462.109633454795 26263.865439434278 19162.076315039336 9127.3586941480262 13688.306109619049
decision_type=2 2 2 2 2 2 2 2 2 2 2 2 2 2
left_child=1 3 4 -1 5 6 -3 8 9 -8 11 -11 -10 -14
right_child=-2 2 -4 -5 -6 -7 7 -9 12 10 -12 -13 13 -15
leaf_value=-1.3844268108299945e-05 0.10198625894052048 -0.10010500989920407 0.03378246942686837 0.093429685497204776 -0.13320984165755537 -0.10554918764375375 -0.10005308642267136 -0.10006364760560411 -0.10005308788568157 -0.10005308706558087 -0.10005308540742607 -0.10005309350530965 -0.10005308928114756 -0.10005309086228234
leaf_weight=0.13775322062429018 0.34373645111918461 0.018791874404996634 0.086639769375324249 0.17833191156387329 0.18715189397335052 0.099620655179023743 0.27472884941380471 0.010171039670240134 0.018032265186775476 0.013259010505862534 0.010605587973259389 0.018562621669843793 0.010607226227875799 0.016971056524198502
leaf_count=49 18 18 8 4 1 2 518 16 34 25 20 35 20 32
internal_value=0 -0.0509178 -0.0937255 0.052706 -0.110007 -0.10117 -0.100056 -0.100053 -0.100053 -0.100053 -0.100053 -0.100053 -0.100053 -0.100053
internal_weight=0 1.08123 0.765142 0.316085 0.678502 0.49135 0.39173 0.372938 0.362767 0.317156 0.0424272 0.0318216 0.0456105 0.0275783
internal_count=800 782 729 53 721 720 718 700 684 598 80 60 86 52
is_linear=0
shrinkage=0.1


Tree=40
num_leaves=10
num_cat=0
split_feature=0 3 1 4 4 0 0 0 0
split_gain=0.569256 1.98977e-06 4.25604e-07 1.03785e-07 2.14564e-08 8.1759e-11 5.55112e-17 5.55112e-17 3.46945e-18
threshold=900192.02515728585 5.5000000000000009 37457.623914265831 1.8784608347338012 1.3751372382004565 652370.18731845764 322075.71836263937 19517.608096183354 483161.74917545513
decision_type=2 2 2 2 2 2 2 2 2
left_child=1 -1 3 4 -3 6 7 -5 -8
right_child=-2 2 -4 5 -6 -7 8 -9 -10
leaf_value=-0.10080957457970539 0.035944394291833985 -0.10013475776110868 -0.10045326118530146 -0.1000480350570444 -0.10024601831213205 -0.10005759187901496 -0.10004803546717492 -0.10004803563233172 -0.10004803389164639
leaf_weight=0.043246371438726783 0.84317497164011002 0.041662708856165409 0.031442687846720219 0.020636096916859969 0.029681568033993244 0.0092036660644225776 0.021116142888786271 0.27643040168914013 0.010077907179947942
leaf_count=21 24 31 7 43 17 16 44 576 21
internal_value=0 -0.100162 -0.100099 -0.100071 -0.100181 -0.100048 -0.100048 -0.100048 -0.100048
internal_weight=0 0.483498 0.440251 0.408808 0.0713443 0.337464 0.328261 0.297066 0.0311941
internal_count=800 776 755 748 48 700 684 619 65
is_linear=0
shrinkage=0.1


Tree=41
num_leaves=11
num_cat=0
split_feature=0 4 1 4 0 0 3 0 4 0
split_gain=0.519398 0.425973 0.147503 0.0530522 0.010416 0.000190679 2.6065e-09 6.03728e-11 1.66533e-16 5.55112e-17
threshold=986557.40761462634 1.8784608347338012 37457.623914265831 1.8149796497408255 959670.81293466047 900192.02515728585 5.5000000000000009 652370.18731845764 12.259939278064639 425309.25032561453
decision_type=2 2 2 2 2 2 2 2 2 2
left_child=1 3 4 -1 5 6 -3 8 9 -8
right_child=-2 2 -4 -5 -6 -7 7 -9 -10 -11
leaf_value=0.0034459083613825707 0.10173034634889122 -0.10008589753834639 0.033723506594617599 0.088952665958416596 -0.13013179545174305 -0.10517606852413718 -0.10004346794958836 -0.10005210013319546 -0.10004345612170536 -0.10004346409181937
leaf_weight=0.12894742796197534 0.30095763131976128 0.015377291943877935 0.081332366447895765 0.16593529377132654 0.17793369293212891 0.093582861125469208 0.27445517081650905 0.0083282548584975302 0.0095524135103914887 0.013027726585278288
leaf_count=49 18 18 8 4 1 2 632 16 22 30
internal_value=0 -0.0486733 -0.092554 0.0515619 -0.109895 -0.101205 -0.100046 -0.100044 -0.100043 -0.100043
internal_weight=0 0.968472 0.67359 0.294883 0.592257 0.414324 0.320741 0.305364 0.297035 0.287483
internal_count=800 782 729 53 721 720 718 700 684 662
is_linear=0
shrinkage=0.1


Tree=42
num_leaves=8
num_cat=0
split_feature=0 3 1 4 4 0 1
split_gain=0.481134 1.99275e-06 3.48926e-07 9.46014e-08 2.31111e-08 4.47757e-11 1.11022e-16
threshold=900192.02515728585 5.5000000000000009 37457.623914265831 1.8784608347338012 1.3751372382004565 652370.18731845764 24635.139505315641
decision_type=2 2 2 2 2 2 2
left_child=1 -1 3 4 -3 6 -5
right_child=-2 2 -4 5 -6 -7 -8
leaf_value=-0.1008442724275399 0.033815032420081673 -0.10012233667100093 -0.10042400448880438 -0.10003932791352213 -0.10024252736396846 -0.10004714304772169 -0.10003932161377237
leaf_weight=0.039086559088900685 0.77269243448972702 0.037832393078133464 0.029430140741169453 0.25581322703510523 0.027721192804165184 0.0075360712944529942 0.012965994101250544
leaf_count=21 24 31 7 651 17 16 33
internal_value=0 -0.100165 -0.100094 -0.100065 -0.100173 -0.10004 -0.100039
internal_weight=0 0.410386 0.371299 0.341869 0.0655536 0.276315 0.268779
internal_count=800 776 755 748 48 700 684
is_linear=0
shrinkage=0.1


Tree=43
num_leaves=11
num_cat=0
split_feature=0 4 1 3 0 0 3 0 0 0
split_gain=0.443483 0.378874 0.137147 0.0431348 0.00777448 0.00015039 1.42484e-09 3.32349e-11 2.77556e-17 2.77556e-17
threshold=986557.40761462634 1.8784608347338012 37457.623914265831 5.5000000000000009 959670.81293466047 900192.02515728585 5.5000000000000009 652370.18731845764 456468.54294903559 134750.40122909608
decision_type=2 2 2 2 2 2 2 2 2 2
left_child=1 3 4 -1 5 6 -3 8 9 -8
right_child=-2 2 -4 -5 -6 -7 7 -9 -10 -11
leaf_value=0.085753168046640516 0.10151101290668994 -0.1000702613657404 0.033760020217432629 0.0060512937583126099 -0.12736497465493582 -0.10481957096996222 -0.10003558028918696 -0.10004265869859619 -0.10003558049565107 -0.10003558031885534
leaf_weight=0.15370212122797966 0.26394504122436047 0.012582087772898376 0.076420527417212725 0.1216438040137291 0.16869224607944489 0.087731130421161652 0.15360685458290391 0.0068192095786798737 0.0088890595943666995 0.080714226991403848
leaf_count=4 18 18 8 49 1 2 432 16 25 227
internal_value=0 -0.0464582 -0.0913124 0.050542 -0.109728 -0.101235 -0.100037 -0.100036 -0.100036 -0.100036
internal_weight=0 0.870801 0.595455 0.275346 0.519035 0.350343 0.262611 0.250029 0.24321 0.234321
internal_count=800 782 729 53 721 720 718 700 684 659
is_linear=0
shrinkage=0.1


Tree=44
num_leaves=13
num_cat=0
split_feature=0 3 1 4 4 0 0 0 4 4 1 4
split_gain=0.408624 2.01417e-06 2.87305e-07 7.40988e-08 1.74383e-08 2.46168e-11 2.77556e-17 2.77556e-17 2.77556e-17 2.77556e-17 3.46945e-18 3.46945e-18
threshold=900192.02515728585 5.5000000000000009 37457.623914265831 1.8784608347338012 1.3751372382004565 652370.18731845764 483161.74917545513 304366.36039287708 10.889411561878811 8.0687602137159473 9795.0720848209676 9.6188574053250893
decision_type=2 2 2 2 2 2 2 2 2 2 2 2
left_child=1 -1 3 4 -3 6 7 8 9 -5 -9 -11
right_child=-2 2 -4 5 -6 -7 -8 10 -10 11 -12 -13
leaf_value=-0.10087615015395777 0.031930856266897172 -0.10011135733141648 -0.10039666241273613 -0.10003219324558693 -0.10022077306654811 -0.10003859733400995 -0.1000321939153378 -0.1000321939692221 -0.10003218994898483 -0.10003219349005446 -0.10003219341232057 -0.10003219438698679
leaf_weight=0.036189260659739375 0.70887886546552181 0.034443285199813545 0.027547173667699099 0.16441228956682608 0.025240265065804124 0.0061705136322416356 0.0067564384662546209 0.008043654088396579 0.0099728922068607062 0.011904608050826937 0.0096522445091977715 0.0093305791378952563
leaf_count=21 24 31 7 511 17 16 21 25 31 37 30 29
internal_value=0 -0.10017 -0.100088 -0.100059 -0.100158 -0.100032 -0.100032 -0.100032 -0.100032 -0.100032 -0.100032 -0.100032
internal_weight=0 0.349663 0.313474 0.285927 0.0596836 0.226243 0.220073 0.213316 0.19562 0.185647 0.0176959 0.0212352
internal_count=800 776 755 748 48 700 684 663 608 577 55 66
is_linear=0
shrinkage=0.1


Tree=45
num_leaves=11
num_cat=0
split_feature=0 4 1 3 0 0 3 0 0 1
split_gain=0.37955 0.337494 0.127649 0.0338836 0.00578756 0.000117655 7.78892e-10 1.82024e-11 2.77556e-17 2.77556e-17
threshold=986557.40761462634 1.8784608347338012 37457.623914265831 5.5000000000000009 959670.81293466047 900192.02515728585 5.5000000000000009 652370.18731845764 283156.77241697564 25473.635532587738
decision_type=2 2 2 2 2 2 2 2 2 2
left_child=1 3 4 -1 5 6 -3 8 9 -8
right_child=-2 2 -4 -5 -6 -7 7 -9 -10 -11
leaf_value=0.082103366198329503 0.10132225213828289 -0.10005747808213172 0.033872121022278087 0.0090645772380945119 -0.12487417697867174 -0.10448077623999188 -0.10002913035761007 -0.10003491934386624 -0.10002913011328909 -0.100029125798475
leaf_weight=0.1429427033290267 0.23183397017419338 0.010294228559359908 0.071863443125039339 0.11430791951715946 0.15951569378376007 0.08209383487701416 0.1668210482748691 0.0055835064267739645 0.02591070078779012 0.0064040661090984932
leaf_count=4 18 18 8 49 1 2 573 16 89 22
internal_value=0 -0.0442873 -0.0900125 0.049649 -0.109509 -0.10126 -0.100031 -0.100029 -0.100029 -0.100029
internal_weight=0 0.785737 0.528487 0.257251 0.456623 0.297107 0.215014 0.204719 0.199136 0.173225
internal_count=800 782 729 53 721 720 718 700 684 595
is_linear=0
shrinkage=0.1


Tree=46
num_leaves=9
num_cat=0
split_feature=0 3 1 4 4 0 1 1
split_gain=0.348857 1.99518e-06 2.3535e-07 5.80559e-08 1.32776e-08 1.3473e-11 2.77556e-17 8.67362e-18
threshold=900192.02515728585 5.5000000000000009 37457.623914265831 1.8784608347338012 1.3751372382004565 652370.18731845764 19907.996882628362 26673.543248753467
decision_type=2 2 2 2 2 2 2 2
left_child=1 -1 3 4 -3 6 -5 -8
right_child=-2 2 -4 5 -6 -7 7 -9
leaf_value=-0.10090121923070416 0.030278039957297494 -0.10010166259287301 -0.10037112900614764 -0.10002635953733492 -0.10020157181764451 -0.10003159509537624 -0.10002635711627937 -0.10002635288040451
leaf_weight=0.033668731804937124 0.65101762488484383 0.031451947288587689 0.025787350488826632 0.16517541764187627 0.023050048970617354 0.0050523249665275207 0.0094836307398509234 0.0055312217155005792
leaf_count=21 24 31 7 627 17 16 36 21
internal_value=0 -0.100176 -0.100084 -0.100053 -0.100144 -0.100027 -0.100026 -0.100026
internal_weight=0 0.299201 0.265532 0.239745 0.054502 0.185243 0.18019 0.0150149
internal_count=800 776 755 748 48 700 684 57
is_linear=0
shrinkage=0.1


Tree=47
num_leaves=12
num_cat=0
split_feature=0 4 1 4 0 0 3 0 0 1 1
split_gain=0.325543 0.301087 0.118906 0.0276323 0.00429899 9.13497e-05 4.25323e-10 9.99911e-12 2.77556e-17 2.77556e-17 6.93889e-18
threshold=986557.40761462634 1.8784608347338012 37457.623914265831 1.8149796497408255 959670.81293466047 900192.02515728585 5.5000000000000009 652370.18731845764 456468.54294903559 14173.809765473254 16532.999142567056
decision_type=2 2 2 2 2 2 2 2 2 2 2
left_child=1 3 4 -1 5 6 -3 8 9 -8 -11
right_child=-2 2 -4 -5 -6 -7 7 -9 -10 10 -12
leaf_value=0.011318026761294848 0.10115920402918246 -0.1000470049419831 0.034042458715396455 0.079450188786660103 -0.12262904492196181 -0.1041603281141438 -0.10002384491129544 -0.10002858713544505 -0.10002384840797417 -0.10002384558325564 -0.10002384640706169
leaf_weight=0.10807756509166211 0.20390253514051437 0.0084218868287280202 0.067625277210026979 0.13251145649701357 0.15048022568225861 0.076692484319210052 0.12562325490580406 0.0045716630411334327 0.0059591782628558567 0.0092965820513200015 0.022167767339851707
leaf_count=49 18 18 8 4 1 2 527 16 25 39 93
internal_value=0 -0.042164 -0.0886671 0.0488438 -0.109247 -0.10128 -0.100025 -0.100024 -0.100024 -0.100024 -0.100024
internal_weight=0 0.711427 0.470838 0.240589 0.403213 0.252733 0.17604 0.167618 0.163047 0.157088 0.0314643
internal_count=800 782 729 53 721 720 718 700 684 659 132
is_linear=0
shrinkage=0.1


Tree=48
num_leaves=9
num_cat=0
split_feature=0 3 1 4 4 0 0 0
split_gain=0.299355 1.9177e-06 1.8978e-07 5.10552e-08 1.35103e-08 7.40369e-12 2.77556e-17 2.77556e-17
threshold=900192.02515728585 5.5000000000000009 37457.623914265831 1.8784608347338012 1.3751372382004565 652370.18731845764 483161.74917545513 334073.33347362798
decision_type=2 2 2 2 2 2 2 2
left_child=1 -1 3 4 -3 6 7 -5
right_child=-2 2 -4 5 -6 -7 -8 -9
leaf_value=-0.10092181986607265 0.028830357083384356 -0.1000930259141538 -0.10034730967311366 -0.1000215786514007 -0.10019766100940775 -0.10002586807900622 -0.10002157905004264 -0.10002157809657042
leaf_weight=0.030932430177927017 0.59842254966497421 0.028784868074581027 0.024143858579918742 0.13480825038277544 0.021599449275527149 0.0041367186058778307 0.004529432422714307 0.0081963238335447386
leaf_count=21 24 31 7 625 17 16 21 38
internal_value=0 -0.100183 -0.100082 -0.100051 -0.100138 -0.100022 -0.100022 -0.100022
internal_weight=0 0.257131 0.226199 0.202055 0.0503843 0.151671 0.147534 0.143005
internal_count=800 776 755 748 48 700 684 663
is_linear=0
shrinkage=0.1


Tree=49
num_leaves=17
num_cat=0
split_feature=0 3 0 0 0 3 1 4 1 4 0 0 0 0 1 0
split_gain=0.279808 0.282621 0.228857 0.00293956 3.96462e-05 1.27352e-06 1.09209e-07 3.59251e-08 1.42253e-08 5.71912e-09 1.51888e-12 9.16309e-13 1.38778e-17 1.38778e-17 1.38778e-17 3.46945e-18
threshold=986557.40761462634 11.500000000000002 900192.02515728585 959670.81293466047 900192.02515728585 5.5000000000000009 37457.623914265831 1.9088539696035551 28131.186101828876 1.8784608347338012 444759.38541909173 507798.34326208307 359398.17439085036 136649.52342608376 22300.48823174795 215890.32603876633
decision_type=2 2 2 2 2 2 2 2 2 2 2 2 2 2 2 2
left_child=1 2 5 4 6 -1 7 -3 9 -7 13 12 14 -11 -9 -15
right_child=-2 3 -4 -5 -6 8 -8 11 -10 10 -12 -13 -14 15 -16 -17
leaf_value=-0.10083418676936313 0.10101790623513379 -0.10015244611022306 0.077089633283591544 -0.12060297008882073 -0.1038584495738268 -0.10008412909976071 -0.10031414755089746 -0.1000195268200002 -0.10021593495855211 -0.1000195269230106 -0.10002153871939046 -0.10002104730086903 -0.10001952361220459 -0.10001952687363154 -0.1000195226359622 -0.10001952648824096
leaf_weight=0.028011907706968486 0.17954899929463863 0.027118360158056021 0.23603793233633041 0.14164911210536957 0.035770785063505173 0.018476926896255463 0.018731247168034315 0.068700622272444889 0.0046829094499116755 0.033764794396120124 0.0040572124853497362 0.0041747573704924426 0.0039033954963088027 0.0070262052613543338 0.0048789293214213094 0.0091730815620394424
leaf_count=21 18 26 4 1 1 22 6 352 9 173 19 20 20 36 25 47
internal_value=0 -0.0401 0.0224182 -0.110062 -0.100916 -0.100257 -0.100091 -0.100053 -0.100047 -0.100036 -0.10002 -0.10002 -0.10002 -0.10002 -0.10002 -0.10002
internal_weight=0 0.646158 0.341231 0.304927 0.163278 0.105193 0.127507 0.108776 0.0771811 0.0724982 0.0540213 0.0816577 0.0774829 0.0499641 0.0735796 0.0161993
internal_count=800 782 331 451 450 327 449 443 306 297 275 417 397 256 377 83
is_linear=0
shrinkage=0.1


Tree=50
num_leaves=15
num_cat=0
split_feature=0 3 0 0 0 3 1 4 1 4 0 0 0 0
split_gain=0.250967 0.253632 0.200084 0.00210756 2.92193e-05 9.44176e-07 8.08651e-08 2.66177e-08 1.05399e-08 4.2363e-09 1.12878e-12 6.80886e-13 1.38778e-17 6.93889e-18
threshold=986557.40761462634 11.500000000000002 900192.02515728585 959670.81293466047 900192.02515728585 5.5000000000000009 37457.623914265831 1.9088539696035551 28131.186101828876 1.8784608347338012 444759.38541909173 507798.34326208307 191749.83903184391 50234.270250274851
decision_type=2 2 2 2 2 2 2 2 2 2 2 2 2 2
left_child=1 2 5 4 6 -1 7 -3 9 -7 12 -9 13 -11
right_child=-2 3 -4 -5 -6 8 -8 11 -10 10 -12 -13 -14 -15
leaf_value=-0.1007548780518577 0.10092010578350526 -0.10013793920311587 0.072575410226175016 -0.11826217479270418 -0.10347781914092258 -0.10007611574082942 -0.1002841670595061 -0.10001766631610082 -0.10019538057840743 -0.10001766641344603 -0.10001948968325368 -0.10001904456263998 -0.10001766629175549 -0.10001766643132699
leaf_weight=0.025365159439388663 0.16261208988726139 0.024541080696508288 0.22617843747138977 0.13057525455951691 0.032479729503393173 0.016719885577913374 0.016953543294221163 0.070110706670675427 0.0042380968370707697 0.013245178342913277 0.0036711890570586539 0.0037775484670419237 0.0093599081301363185 0.022605081496294588
leaf_count=21 18 26 4 1 1 22 6 397 9 75 19 20 53 128
internal_value=0 -0.0391424 0.0213839 -0.109004 -0.100828 -0.100232 -0.100082 -0.100048 -0.100043 -0.100033 -0.100018 -0.100018 -0.100018 -0.100018
internal_weight=0 0.599821 0.321383 0.278438 0.147863 0.0952045 0.115383 0.0984293 0.0698393 0.0656012 0.0488814 0.0738883 0.0452102 0.0358503
internal_count=800 782 331 451 450 327 449 443 306 297 275 417 256 203
is_linear=0
shrinkage=0.1


Tree=51
num_leaves=13
num_cat=0
split_feature=0 4 1 3 0 0 3 0 1 0 1 1
split_gain=0.22503 0.234733 0.0956946 0.017579 0.00159594 6.72209e-05 1.26487e-10 2.9954e-12 5.55112e-17 1.38778e-17 1.38778e-17 8.67362e-19
threshold=986557.40761462634 1.8784608347338012 37457.623914265831 5.5000000000000009 959670.81293466047 900192.02515728585 5.5000000000000009 652370.18731845764 26673.543248753467 483161.74917545513 18947.287923578235 22655.099745071639
decision_type=2 2 2 2 2 2 2 2 2 2 2 2
left_child=1 3 4 -1 5 6 -3 8 9 10 -8 -12
right_child=-2 2 -4 -5 -6 -7 7 -9 -10 -11 11 -13
leaf_value=0.077271547323075493 0.10083178219184392 -0.10003143261804726 0.036682319540287028 0.016817495446054587 -0.11622527824324032 -0.10391900585495528 -0.10001599070227885 -0.1000191596787349 -0.10001597900445103 -0.10001598490389998 -0.10001598533611294 -0.10001598754782648
leaf_weight=0.10822781687602401 0.14725982956588268 0.005632691550999879 0.054352330276742578 0.086577427864540368 0.12011323869228363 0.070533214136958122 0.095080349739873782 0.0030647637177025891 0.0033547077473485834 0.0033556544949533409 0.0041547416039975351 0.0033557366987224668
leaf_count=4 18 18 8 49 1 2 595 16 21 21 26 21
internal_value=0 -0.038148 -0.0856701 0.0504039 -0.107216 -0.101477 -0.100017 -0.100016 -0.100016 -0.100016 -0.100016 -0.100016
internal_weight=0 0.557803 0.362997 0.194805 0.308645 0.188532 0.117999 0.112366 0.109301 0.105946 0.102591 0.00751048
internal_count=800 782 729 53 721 720 718 700 684 663 642 47
is_linear=0
shrinkage=0.1


Tree=52
num_leaves=14
num_cat=0
split_feature=0 3 1 4 4 0 4 0 0 1 1 1 1
split_gain=0.209541 1.0135e-06 8.50614e-08 2.20582e-08 5.78303e-09 2.21691e-12 6.93889e-17 1.38778e-17 1.38778e-17 3.46945e-18 3.46945e-18 1.73472e-18 3.46945e-18
threshold=900192.02515728585 5.5000000000000009 37457.623914265831 1.8784608347338012 1.3751372382004565 652370.18731845764 10.35176065163 456468.54294903559 203647.97922349328 20794.830406220302 15680.439894627265 11783.027334550652 8772.4209101926263
decision_type=2 2 2 2 2 2 2 2 2 2 2 2 2
left_child=1 -1 3 4 -3 6 7 8 -5 -8 11 12 -10
right_child=-2 2 -4 5 -6 -7 9 -9 10 -11 -12 -13 -14
leaf_value=-0.10076553965185329 0.025966519621107784 -0.10007006038685635 -0.10026666070104701 -0.10001447185581268 -0.10014891659889041 -0.1000173374458892 -0.10001446435979021 -0.10001446412834923 -0.10001447180628519 -0.10001446085610695 -0.10001446730244029 -0.10001447198826462 -0.10001447098448908
leaf_weight=0.023796948604285717 0.47682981472462416 0.021688922075554729 0.018567291321232915 0.070995692818542011 0.016281279735267162 0.0027731609443435437 0.0040485592180630192 0.0031809898500796399 0.0079526798508595675 0.0040477287984685972 0.002891814583563245 0.0028918837779201576 0.0028918832540512094
leaf_count=21 24 31 7 491 17 16 28 22 55 28 20 20 20
internal_value=0 -0.100157 -0.100066 -0.100039 -0.100104 -0.100015 -0.100014 -0.100014 -0.100014 -0.100014 -0.100014 -0.100014 -0.100014
internal_weight=0 0.182009 0.158212 0.139645 0.0379702 0.101674 0.0989012 0.0908049 0.087624 0.00809629 0.0166283 0.0137364 0.0108446
internal_count=800 776 755 748 48 700 684 628 606 56 115 95 75
is_linear=0
shrinkage=0.1


Tree=53
num_leaves=17
num_cat=0
split_feature=0 3 0 0 0 3 1 4 4 4 0 0 4 0 0 0
split_gain=0.194321 0.212938 0.154752 0.00113815 1.67756e-05 6.61827e-07 4.85575e-08 1.53966e-08 6.71781e-09 2.53335e-09 3.68532e-13 2.76966e-13 2.77556e-17 6.93889e-18 6.93889e-18 6.93889e-18
threshold=986557.40761462634 11.500000000000002 900192.02515728585 959670.81293466047 900192.02515728585 5.5000000000000009 37457.623914265831 1.9088539696035551 12.259939278064639 1.8784608347338012 425309.25032561453 507798.34326208307 10.571597740048446 314490.0275026139 250568.65532320799 215890.32603876633
decision_type=2 2 2 2 2 2 2 2 2 2 2 2 2 2 2 2
left_child=1 2 5 4 6 -1 7 -3 9 -7 -11 12 13 14 15 -9
right_child=-2 3 -4 -5 -6 8 -8 11 -10 10 -12 -13 -14 -15 -16 -17
leaf_value=-0.10069269130743619 0.10073272108478473 -0.1001148487866127 0.067696657919911155 -0.11482494540777498 -0.10290076872543177 -0.10006336702477379 -0.10024121359827143 -0.10001307996317051 -0.10017092681029388 -0.10001307996645351 -0.10001429573657494 -0.10001410210029382 -0.10001308720937994 -0.10001308309653004 -0.10001308147130752 -0.10001308083764443
leaf_weight=0.021547154930885881 0.12997810542583466 0.020437718834728003 0.20362537354230881 0.11243995279073715 0.02739526703953743 0.013922360958531499 0.014403412118554115 0.039381620852509513 0.003473411939921788 0.033493632858153433 0.0026938233058899632 0.002798607893055304 0.0040556129242759189 0.003140044995234347 0.0026167140749748788 0.0027475549431983373
leaf_count=21 18 26 4 1 1 22 6 301 9 256 19 20 31 24 20 21
internal_value=0 -0.0362864 0.0224384 -0.107641 -0.100735 -0.100225 -0.100073 -0.100041 -0.100036 -0.100027 -0.100013 -0.100013 -0.100013 -0.100013 -0.100013 -0.100013
internal_weight=0 0.508172 0.278756 0.229417 0.116977 0.0751304 0.0895813 0.0751779 0.0535832 0.0501098 0.0361875 0.0547402 0.0519415 0.0478859 0.0447459 0.0421292
internal_count=800 782 331 451 450 327 449 443 306 297 275 417 397 366 342 322
is_linear=0
shrinkage=0.1


Tree=54
num_leaves=13
num_cat=0
split_feature=0 4 1 4 0 0 3 0 0 4 4 4
split_gain=0.17425 0.197749 0.0837028 0.0130054 0.000829412 5.21996e-05 5.11399e-11 1.22441e-12 1.38778e-17 1.38778e-17 1.73472e-18 8.67362e-19
threshold=986557.40761462634 1.8784608347338012 37457.623914265831 1.8149796497408255 959670.81293466047 900192.02515728585 5.5000000000000009 652370.18731845764 483161.74917545513 9.422390524058434 11.844513660207056 10.145335258516164
decision_type=2 2 2 2 2 2 2 2 2 2 2 2
left_child=1 3 4 -1 5 6 -3 8 9 -8 11 -11
right_child=-2 2 -4 -5 -6 -7 7 -9 -10 10 -12 -13
leaf_value=0.020225143295438695 0.10066250748899748 -0.10002325361611027 0.038247147855599718 0.075845210382194717 -0.11321676566262051 -0.10374584964367975 -0.10001183724527377 -0.10001419223190473 -0.10001184227654654 -0.10001183977758923 -0.1000118385478859 -0.10001184082725863
leaf_weight=0.075942729192320257 0.1176869161427021 0.0041672707302495829 0.047502924222499132 0.094169417396187782 0.10311071574687958 0.06552189402282238 0.069492960297793616 0.0022705210285494095 0.0024860067642293862 0.0023676804048591293 0.0026039322910946794 0.0040247859069495462
leaf_count=49 18 18 8 4 1 2 587 16 21 20 22 34
internal_value=0 -0.035297 -0.0836671 0.0510149 -0.106285 -0.101612 -0.100012 -0.100012 -0.100012 -0.100012 -0.100012 -0.100012
internal_weight=0 0.473661 0.303549 0.170112 0.256046 0.152935 0.0874132 0.0832459 0.0809754 0.0784894 0.0089964 0.00639247
internal_count=800 782 729 53 721 720 718 700 684 663 76 54
is_linear=0
shrinkage=0.1


Tree=55
num_leaves=7
num_cat=0
split_feature=0 3 1 4 4 0
split_gain=0.16392 7.08427e-07 5.08838e-08 1.42278e-08 5.3159e-09 9.10869e-13
threshold=900192.02515728585 5.5000000000000009 37457.623914265831 1.8784608347338012 1.5352277288125931 652370.18731845764
decision_type=2 2 2 2 2 2
left_child=1 -1 3 4 -3 -5
right_child=-2 2 -4 5 -6 -7
leaf_value=-0.1007007218858387 0.024163834843616797 -0.10005851883369428 -0.10022672044013584 -0.10001071157817115 -0.10014252710087837 -0.1000128464750403
leaf_weight=0.020008854509796947 0.40964282583445311 0.019872960983775556 0.015799015527591109 0.073270324923214503 0.01212996692629531 0.0020544786384562022
leaf_count=21 24 34 7 684 14 16
internal_value=0 -0.100149 -0.100059 -0.100035 -0.10009 -0.100011
internal_weight=0 0.143136 0.123127 0.107328 0.0320029 0.0753248
internal_count=800 776 755 748 48 700
is_linear=0
shrinkage=0.1


Tree=56
num_leaves=16
num_cat=0
split_feature=0 3 0 0 0 3 1 4 4 4 0 0 0 4 1
split_gain=0.150941 0.179007 0.119677 0.000619878 9.58202e-06 4.56904e-07 2.85456e-08 1.0136e-08 4.71724e-09 1.51447e-09 1.4741e-13 1.10717e-13 1.38778e-17 3.46945e-18 8.67362e-19
threshold=986557.40761462634 11.500000000000002 900192.02515728585 959670.81293466047 900192.02515728585 5.5000000000000009 37457.623914265831 1.9088539696035551 12.616809842266688 1.8784608347338012 425309.25032561453 507798.34326208307 33263.935295200114 9.6188574053250893 8563.1468560449175
decision_type=2 2 2 2 2 2 2 2 2 2 2 2 2 2 2
left_child=1 2 5 4 6 -1 7 -3 9 -7 13 12 14 -11 -9
right_child=-2 3 -4 -5 -6 8 -8 11 -10 10 -12 -13 -14 -15 -16
leaf_value=-0.10063400964116626 0.10058476003254793 -0.1001011088987665 0.063060493168630258 -0.11209066976447479 -0.10241691518085172 -0.10005292440037478 -0.10020508976438025 -0.10000969839708954 -0.10016083436760187 -0.10000969839711037 -0.10001059108011306 -0.10001044790902909 -0.10000969759006309 -0.10000969354059236 -0.10000969774426745
leaf_weight=0.018116152030415833 0.10403702035546303 0.017327603651210666 0.18384834937751293 0.096230164170265198 0.023041890934109688 0.011632205569185317 0.012255381792783737 0.0039740796564728944 0.0026436120970174662 0.023069047761964612 0.0019957036056439384 0.0020733316923724479 0.032277041165798437 0.0019382706523174411 0.0022293617730611004
leaf_count=21 18 26 4 1 1 22 6 41 7 238 19 20 333 20 23
internal_value=0 -0.0335684 0.0231919 -0.106461 -0.100648 -0.100215 -0.100066 -0.100037 -0.100032 -0.100023 -0.10001 -0.10001 -0.10001 -0.10001 -0.10001
internal_weight=0 0.432652 0.243243 0.189409 0.0931787 0.059395 0.0701368 0.0578814 0.0412788 0.0386352 0.027003 0.0405538 0.0384805 0.0250073 0.00620344
internal_count=800 782 331 451 450 327 449 443 306 299 277 417 397 258 64
is_linear=0
shrinkage=0.1


Tree=57
num_leaves=13
num_cat=0
split_feature=0 4 1 4 0 0 3 0 4 0 0 1
split_gain=0.135352 0.167771 0.0736903 0.00931976 0.000424125 4.08274e-05 2.06301e-11 4.99052e-13 1.38778e-17 6.93889e-18 6.93889e-18 1.73472e-18
threshold=986557.40761462634 1.8784608347338012 37457.623914265831 1.8149796497408255 959670.81293466047 900192.02515728585 5.5000000000000009 652370.18731845764 9.8287560302516699 432790.79670440702 342806.77028472786 21636.783449398205
decision_type=2 2 2 2 2 2 2 2 2 2 2 2
left_child=1 3 4 -1 5 6 -3 8 9 10 -8 -10
right_child=-2 2 -4 -5 -6 -7 7 -9 11 -11 -12 -13
leaf_value=0.023968640015457399 0.10052880402774118 -0.10001719872349213 0.039909118263950924 0.07427987483773113 -0.11080860037658875 -0.10361519706148162 -0.10000876889547544 -0.10001051584684953 -0.100008774145228 -0.1000087714159536 -0.1000087691742938 -0.10000877157542268
leaf_weight=0.066622713668039069 0.094186322763562202 0.0030833735654596231 0.041652140207588673 0.082305666524916887 0.088028393685817719 0.060952680185437202 0.049816716636996716 0.0016820880628074511 0.0028941644923179402 0.0023679957957938305 0.0017541106353746718 0.0031567173355142586
leaf_count=49 18 18 8 4 1 2 568 16 33 27 20 36
internal_value=0 -0.0325815 -0.0817725 0.0517733 -0.105485 -0.101758 -0.100009 -0.100009 -0.100009 -0.100009 -0.100009 -0.100009
internal_weight=0 0.404317 0.255388 0.148928 0.213736 0.125708 0.0647552 0.0616718 0.0599897 0.0539388 0.0515708 0.00605088
internal_count=800 782 729 53 721 720 718 700 684 615 588 69
is_linear=0
shrinkage=0.1


Tree=58
num_leaves=13
num_cat=0
split_feature=0 3 1 4 4 0 0 0 0 0 1 1
split_gain=0.129052 4.91141e-07 3.04012e-08 9.13629e-09 3.05817e-09 3.71127e-13 1.38778e-17 6.93889e-18 6.93889e-18 6.93889e-18 3.46945e-18 1.73472e-18
threshold=900192.02515728585 5.5000000000000009 37457.623914265831 1.8784608347338012 1.3751372382004565 652370.18731845764 473107.7113492121 244669.48992782747 35381.048894366926 220399.63016224085 17604.319495623557 11939.161465512405
decision_type=2 2 2 2 2 2 2 2 2 2 2 2
left_child=1 -1 3 4 -3 6 7 8 11 -10 -9 -5
right_child=-2 2 -4 5 -6 -7 -8 10 9 -11 -12 -13
leaf_value=-0.10063822809388166 0.022553029740443119 -0.1000490771266011 -0.10019310512660713 -0.10000793058418074 -0.10011682643393656 -0.10000951448512017 -0.10000793746441768 -0.10000793100420341 -0.1000079308442704 -0.10000793153584882 -0.10000793550691062 -0.10000793022226172
leaf_weight=0.016898763278732076 0.3529573529958725 0.01519726385595277 0.013465115218423307 0.0084915088300476782 0.01186415262054652 0.0015220306886476456 0.0019045448570977888 0.0055551737095811396 0.032695938702090643 0.002221993920102249 0.0017457515132264234 0.0016664503564243214
leaf_count=21 24 31 7 107 17 16 24 70 412 28 22 21
internal_value=0 -0.100141 -0.100054 -0.100031 -0.100079 -0.100008 -0.100008 -0.100008 -0.100008 -0.100008 -0.100008 -0.100008
internal_weight=0 0.113229 0.0963299 0.0828648 0.0270614 0.0558034 0.0542814 0.0523768 0.0450759 0.0349179 0.00730093 0.010158
internal_count=800 776 755 748 48 700 684 660 568 440 92 128
is_linear=0
shrinkage=0.1


Tree=59
num_leaves=11
num_cat=0
split_feature=0 4 1 3 0 0 3 0 0 1
split_gain=0.117592 0.150387 0.068548 0.00776446 0.000312954 3.02894e-05 1.13016e-11 2.72636e-13 6.93889e-18 6.93889e-18
threshold=986557.40761462634 1.8784608347338012 37457.623914265831 5.5000000000000009 959670.81293466047 900192.02515728585 5.5000000000000009 652370.18731845764 483161.74917545513 26673.543248753467
decision_type=2 2 2 2 2 2 2 2 2 2
left_child=1 3 4 -1 5 6 -3 8 9 -8
right_child=-2 2 -4 -5 -6 -7 7 -9 -10 -11
leaf_value=0.072467947835390775 0.10046756748198325 -0.10001408036019613 0.039837021230342495 0.025072704277774107 -0.10989557721237453 -0.10333515689147908 -0.1000071837191491 -0.10000860994006927 -0.10000717803317559 -0.1000071777939098
leaf_weight=0.076269223354756832 0.083380280993878841 0.0025229564344044766 0.039256102871149778 0.063214323832653463 0.081937074661254883 0.056512564420700073 0.046100827465124894 0.0013772021557088001 0.0015078941796673453 0.0015074376060510977
leaf_count=4 18 18 8 49 1 2 642 16 21 21
internal_value=0 -0.0309839 -0.0805404 0.0509883 -0.105221 -0.101724 -0.100008 -0.100007 -0.100007 -0.100007
internal_weight=0 0.370206 0.230722 0.139484 0.191466 0.109529 0.0530163 0.0504934 0.0491162 0.0476083
internal_count=800 782 729 53 721 720 718 700 684 663
is_linear=0
shrinkage=0.1


Tree=60
num_leaves=13
num_cat=0
split_feature=0 3 1 4 4 0 1 0 4 4 1 4
split_gain=0.113571 4.57003e-07 2.47307e-08 7.17598e-09 2.44317e-09 2.00381e-13 2.08167e-17 6.93889e-18 6.93889e-18 6.93889e-18 1.30104e-18 8.67362e-19
threshold=900192.02515728585 5.5000000000000009 37457.623914265831 1.8784608347338012 1.3751372382004565 652370.18731845764 24159.731460479281 359398.17439085036 10.533991214176099 7.1301719596146205 9988.4592481579839 9.2573837043226561
decision_type=2 2 2 2 2 2 2 2 2 2 2 2
left_child=1 -1 3 4 -3 6 7 8 9 -5 -9 -11
right_child=-2 2 -4 5 -6 -7 -8 10 -10 11 -12 -13
leaf_value=-0.1006365065193561 0.021957762741696113 -0.10004552587331489 -0.10018179214470541 -0.1000065060394805 -0.10010839148816281 -0.10000779062004704 -0.10000649628225849 -0.10000650315471415 -0.10000649824305528 -0.10000650590436495 -0.10000649943470037 -0.10000650495327033
leaf_weight=0.016005511628463864 0.32510458212345839 0.014100495405727997 0.012679316219873726 0.031513003348663915 0.011008260626113042 0.0012461537189665242 0.0022736379469279191 0.0019492344581522039 0.0014293844214989795 0.004613244120264425 0.0013644166683661751 0.0012995031793252565
leaf_count=21 24 31 7 485 17 16 35 30 22 71 21 20
internal_value=0 -0.100147 -0.100053 -0.10003 -0.100073 -0.100007 -0.100007 -0.100007 -0.100007 -0.100007 -0.100007 -0.100007
internal_weight=0 0.0994822 0.0834767 0.0707973 0.0251088 0.0456886 0.0444424 0.0421688 0.0388551 0.0374258 0.00331365 0.00591275
internal_count=800 776 755 748 48 700 684 649 598 576 51 91
is_linear=0
shrinkage=0.1


Tree=61
num_leaves=18
num_cat=0
split_feature=0 3 0 0 0 3 1 4 4 4 0 0 4 0 1 0 0
split_gain=0.102307 0.139962 0.0834577 0.000256446 4.19644e-06 2.85613e-07 1.34543e-08 5.17625e-09 2.99851e-09 7.28082e-10 3.09856e-14 2.44804e-14 8.67362e-18 3.46945e-18 3.46945e-18 1.73472e-18 1.73472e-18
threshold=986557.40761462634 11.500000000000002 900192.02515728585 959670.81293466047 900192.02515728585 5.5000000000000009 37457.623914265831 1.9088539696035551 14.742044180216544 1.8784608347338012 425309.25032561453 507798.34326208307 9.422390524058434 334073.33347362798 21636.783449398205 237777.26029587918 151831.60908688643
decision_type=2 2 2 2 2 2 2 2 2 2 2 2 2 2 2 2 2
left_child=1 2 5 4 6 -1 7 -3 9 -7 12 13 15 14 -9 16 -11
right_child=-2 3 -4 -5 -6 8 -8 11 -10 10 -12 -13 -14 -15 -16 -17 -18
leaf_value=-0.10057586229804683 0.10041368294151601 -0.10008265899359721 0.058751311131380546 -0.10906254663327866 -0.10185453936185872 -0.10004117466636633 -0.10016445712033116 -0.10000588412467548 -0.10015296487494647 -0.10000588459844584 -0.10000639789974547 -0.10000633643663832 -0.10000587766736446 -0.10000587936125607 -0.10000587864860318 -0.10000588335405716 -0.10000588445757921
leaf_weight=0.014490673958789557 0.073851725086569786 0.013669988431502134 0.15558844804763794 0.076190128922462463 0.017876192927360535 0.0090508521534502506 0.0098349521867930889 0.020518532361165853 0.0017688751431705887 0.010112292893609265 0.0012692753116425584 0.0012575883156387127 0.0014694478013552734 0.0012934172045788719 0.0015284879846149116 0.001704979636997451 0.0020577340219460902
leaf_count=21 18 26 4 1 1 22 6 349 3 172 20 20 25 22 26 29 35
internal_value=0 -0.0294509 0.0250087 -0.10511 -0.100546 -0.100217 -0.10006 -0.100033 -0.100027 -0.100018 -0.100006 -0.100006 -0.100006 -0.100006 -0.100006 -0.100006 -0.100006
internal_weight=0 0.339682 0.197513 0.142169 0.0659792 0.0419241 0.048103 0.038268 0.0274335 0.0256646 0.0166137 0.024598 0.0153445 0.0233404 0.022047 0.013875 0.01217
internal_count=800 782 331 451 450 327 449 443 306 303 281 417 261 397 375 236 207
is_linear=0
shrinkage=0.1


Tree=62
num_leaves=11
num_cat=0
split_feature=0 4 1 3 0 0 3 0 1 0
split_gain=0.0917837 0.128776 0.0607573 0.00559091 0.000155563 2.34936e-05 4.55815e-12 1.10939e-13 1.38778e-17 4.33681e-19
threshold=986557.40761462634 1.8784608347338012 37457.623914265831 5.5000000000000009 959670.81293466047 900192.02515728585 5.5000000000000009 652370.18731845764 2526.7543062870282 105794.91867363863
decision_type=2 2 2 2 2 2 2 2 2 2
left_child=1 3 4 -1 5 6 -3 8 9 -8
right_child=-2 2 -4 -5 -6 -7 7 -9 -10 -11
leaf_value=0.071425497029550172 0.10037417075158561 -0.1000104121648471 0.041589537793315583 0.028517872723819771 -0.10812614957920651 -0.10323780972144934 -0.10000532041730692 -0.10000637761827971 -0.10000532029485905 -0.10000532043055417
leaf_weight=0.066796779632568359 0.066848774906247854 0.001866897859144955 0.034532735706306994 0.055682951904600486 0.069506146013736725 0.052613900974392891 0.0024471009892295106 0.001020269402943085 0.032716130277549382 0.0012235474387125578
leaf_count=4 18 18 8 49 1 2 46 16 615 23
internal_value=0 -0.0285159 -0.0787978 0.0519184 -0.104556 -0.101856 -0.100006 -0.100005 -0.100005 -0.100005
internal_weight=0 0.318406 0.195927 0.12248 0.161394 0.0918878 0.0392739 0.037407 0.0363868 0.00367065
internal_count=800 782 729 53 721 720 718 700 684 69
is_linear=0
shrinkage=0.1


Tree=63
num_leaves=8
num_cat=0
split_feature=0 3 1 4 4 0 0
split_gain=0.0904796 3.12526e-07 1.49204e-08 4.18949e-09 1.46106e-09 7.05269e-14 6.93889e-18
threshold=900192.02515728585 5.5000000000000009 37457.623914265831 1.8784608347338012 1.3751372382004565 627995.88843478297 444759.38541909173
decision_type=2 2 2 2 2 2 2
left_child=1 -1 3 4 -3 6 -5
right_child=-2 2 -4 5 -6 -7 -8
leaf_value=-0.10057175652479639 0.020636035677667655 -0.10003834718318105 -0.10015510139319615 -0.10000481411087014 -0.10009131148639804 -0.10000564004495274 -0.10000481419687131
leaf_weight=0.013763149981969036 0.28116524405777454 0.01187887805281207 0.010823825607076287 0.031576535824569874 0.0092750494950450957 0.0010675834455469149 0.0012033403509121845
leaf_count=21 24 31 7 656 17 19 25
internal_value=0 -0.100138 -0.100048 -0.100027 -0.100062 -0.100005 -0.100005
internal_weight=0 0.0795884 0.0658252 0.0550014 0.0211539 0.0338475 0.0327799
internal_count=800 776 755 748 48 700 681
is_linear=0
shrinkage=0.1


Tree=64
num_leaves=9
num_cat=0
split_feature=0 3 1 4 4 0 0 1
split_gain=0.0808257 2.31551e-07 1.10504e-08 3.10311e-09 1.08245e-09 4.70179e-14 3.46945e-18 6.93889e-18
threshold=900192.02515728585 5.5000000000000009 37457.623914265831 1.8784608347338012 1.3751372382004565 599142.09699273994 334073.33347362798 25069.200606468999
decision_type=2 2 2 2 2 2 2 2
left_child=1 -1 3 4 -3 6 7 -5
right_child=-2 2 -4 5 -6 -7 -8 -9
leaf_value=-0.10051727140035954 0.018656746291554359 -0.10003469528516061 -0.10014032104549984 -0.10000435990567812 -0.10008261946113112 -0.10000503948415018 -0.10000435769021841 -0.1000043546455657
leaf_weight=0.012459820383810438 0.27996200369670987 0.010748825705377385 0.009795174584724009 0.026002348502515815 0.0083931034605484456 0.0010531005209486457 0.0023519142669101703 0.001219218898768303
leaf_count=21 24 31 7 597 17 21 54 28
internal_value=0 -0.100125 -0.100043 -0.100024 -0.100056 -0.100004 -0.100004 -0.100004
internal_weight=0 0.0720235 0.0595637 0.0497685 0.0191419 0.0306266 0.0295735 0.0272216
internal_count=800 776 755 748 48 700 679 625
is_linear=0
shrinkage=0.1


Tree=65
num_leaves=11
num_cat=0
split_feature=0 4 1 4 0 0 3 0 0 0
split_gain=0.0781322 0.118536 0.0572482 0.00415679 0.000114911 1.68767e-05 1.84349e-12 3.16032e-14 3.46945e-18 4.33681e-19
threshold=986557.40761462634 1.8784608347338012 37457.623914265831 1.8149796497408255 959670.81293466047 900192.02515728585 5.5000000000000009 589139.57328862499 304366.36039287708 408979.8383826096
decision_type=2 2 2 2 2 2 2 2 2 2
left_child=1 3 4 -1 5 6 -3 8 -8 -10
right_child=-2 2 -4 -5 -6 -7 7 -9 9 -11
leaf_value=0.033131046226522368 0.1003253939354464 -0.10000770576224008 0.044859993446779101 0.072065339967641043 -0.10758562192215718 -0.10303844522491093 -0.10000394154088799 -0.10000449554006495 -0.10000394167581711 -0.10000394176716235
leaf_weight=0.050410620373440906 0.058191429823637009 0.0013815870188409454 0.031222350196912885 0.0601306565804407 0.065536357462406158 0.049546579830348492 0.023961215982126305 0.0010711123868532004 0.0015764025229145764 0.0011034561866836157
leaf_count=49 18 18 8 4 1 2 608 24 40 28
internal_value=0 -0.0267935 -0.0779071 0.05431 -0.104493 -0.101916 -0.100004 -0.100004 -0.100004 -0.100004
internal_weight=0 0.28594 0.175399 0.110541 0.144177 0.0786404 0.0290938 0.0277122 0.0266411 0.00267986
internal_count=800 782 729 53 721 720 718 700 676 68
is_linear=0
shrinkage=0.1


Tree=66
num_leaves=9
num_cat=0
split_feature=0 3 1 4 4 0 0 4
split_gain=0.0721663 2.12759e-07 8.93285e-09 2.64219e-09 1.03405e-09 2.12538e-14 1.04083e-17 6.93889e-18
threshold=900192.02515728585 5.5000000000000009 37457.623914265831 1.8784608347338012 1.3751372382004565 577939.67679731268 359398.17439085036 10.145335258516164
decision_type=2 2 2 2 2 2 2 2
left_child=1 -1 3 4 -3 6 7 -5
right_child=-2 2 -4 5 -6 -7 -8 -9
leaf_value=-0.10051447707275518 0.018412334578269345 -0.10003245296545873 -0.10013278184263674 -0.10000356079912938 -0.1000806831331784 -0.10000401605599119 -0.10000356827277113 -0.10000356721436039
leaf_weight=0.011756101215723902 0.2579176570288837 0.010053669888293371 0.0092697854852303863 0.020682887181465048 0.0079688661789987236 0.0010761599769466548 0.001497696815931703 0.0018183701504312913
leaf_count=21 24 31 7 580 17 27 42 51
internal_value=0 -0.10013 -0.100044 -0.100025 -0.100054 -0.100004 -0.100004 -0.100004
internal_weight=0 0.0641235 0.0523674 0.0430977 0.0180225 0.0250751 0.023999 0.0225013
internal_count=800 776 755 748 48 700 673 631
is_linear=0
shrinkage=0.1


Tree=67
num_leaves=16
num_cat=0
split_feature=0 3 0 0 0 3 1 4 1 4 0 0 4 1 0
split_gain=0.06842 0.108539 0.0537002 0.000106908 1.86872e-06 1.2848e-07 4.69122e-09 1.92049e-09 1.25435e-09 2.58041e-10 3.89445e-15 2.48933e-15 6.93889e-18 3.46945e-18 1.73472e-18
threshold=986557.40761462634 11.500000000000002 900192.02515728585 959670.81293466047 900192.02515728585 5.5000000000000009 37457.623914265831 1.9088539696035551 40601.197120674835 1.8784608347338012 342806.77028472786 397935.8267174944 10.145335258516164 15640.106823939261 203647.97922349328
decision_type=2 2 2 2 2 2 2 2 2 2 2 2 2 2 2
left_child=1 2 5 4 6 -1 7 -3 9 -7 13 12 14 -11 -9
right_child=-2 3 -4 -5 -6 8 -8 11 -10 10 -12 -13 -14 -15 -16
leaf_value=-0.1004654434486886 0.10028896822451497 -0.10006130981464874 0.05359570640975822 -0.10693846746020418 -0.10144370465954884 -0.10002934878069969 -0.10012012388350916 -0.10000323564117204 -0.10012016407102438 -0.10000323583691378 -0.10000343908563498 -0.10000339783180641 -0.10000322863424727 -0.10000323034323083 -0.10000323495964565
leaf_weight=0.010642287888913415 0.05171390762552619 0.0098552675044629723 0.13060583733022213 0.060672987252473831 0.014029012992978096 0.0064529888913966707 0.0071899546310305587 0.0092928285121161025 0.0011987000470980993 0.0071309552040474955 0.0010579389090708 0.0010128599788004075 0.0011292645685898614 0.0010000562942877878 0.0020650707010645428
leaf_count=21 18 26 4 1 1 22 6 288 1 221 31 30 35 31 64
internal_value=0 -0.0255232 0.0268602 -0.104207 -0.100488 -0.100193 -0.100049 -0.100028 -0.100022 -0.100014 -0.100003 -0.100003 -0.100003 -0.100003 -0.100003
internal_weight=0 0.263336 0.158089 0.105247 0.0445743 0.0274829 0.0305452 0.0233553 0.0168406 0.0156419 0.00918895 0.0135 0.0124872 0.00813101 0.0113579
internal_count=800 782 331 451 450 327 449 443 306 305 283 417 387 252 352
is_linear=0
shrinkage=0.1


Tree=68
num_leaves=14
num_cat=0
split_feature=0 4 1 3 0 1 0 3 0 0 1 1 1
split_gain=0.0614062 0.102326 0.0509205 0.00302939 5.42552e-05 1.32825e-05 1.2923e-06 3.79835e-13 5.55112e-15 3.46945e-18 1.73472e-18 1.73472e-18 1.73472e-18
threshold=986557.40761462634 1.8784608347338012 37457.623914265831 5.5000000000000009 959670.81293466047 2692.6951702602269 900192.02515728585 6.5000000000000009 473107.7113492121 176319.48969275763 18683.845211768828 13688.306109619049 10471.332367235877
decision_type=2 2 2 2 2 2 2 2 2 2 2 2 2
left_child=1 3 4 -1 5 -3 7 -7 9 10 11 12 -9
right_child=-2 2 -4 -5 -6 6 -8 8 -10 -11 -12 -13 -14
leaf_value=0.071393552159910237 0.1002613877421914 -0.10333144972713 0.046439874994684341 0.036010581507601717 -0.10623477529542918 -0.10000454772788528 -0.10130442638606139 -0.10000292192468081 -0.10000316394947235 -0.10000292142352725 -0.10000291958780093 -0.10000292183522126 -0.1000029219699506
leaf_weight=0.052829268854111433 0.046804895158857107 0.035799353119728039 0.027584117720834911 0.044646858354099095 0.05524425208568573 0.0015945107843435826 0.012710539624094963 0.0080289721663575619 0.001003852092253509 0.0042917194114124859 0.0011385241214156858 0.0012262372983968825 0.0018101682690030438
leaf_count=4 18 83 8 49 1 39 1 275 32 147 39 42 62
internal_value=0 -0.0246249 -0.076341 0.0551871 -0.10391 -0.10201 -0.100523 -0.100003 -0.100003 -0.100003 -0.100003 -0.100003 -0.100003
internal_weight=0 0.247908 0.150432 0.0974761 0.122848 0.0676039 0.0318045 0.019094 0.0174995 0.0164956 0.0122039 0.0110654 0.00983914
internal_count=800 782 729 53 721 720 637 636 597 565 418 379 337
is_linear=0
shrinkage=0.1


Tree=69
num_leaves=11
num_cat=0
split_feature=0 3 1 4 4 0 1 3 1 1
split_gain=0.0583192 1.44368e-07 5.42339e-09 1.55029e-09 6.324e-10 6.3699e-15 1.04083e-17 5.20417e-18 1.73472e-18 4.33681e-19
threshold=900192.02515728585 5.5000000000000009 37457.623914265831 1.8784608347338012 1.3751372382004565 483161.74917545513 2908.3289878177825 12.500000000000002 10837.134005739923 2072.9678998260329
decision_type=2 2 2 2 2 2 2 2 2 2
left_child=1 -1 3 4 -3 6 9 8 -8 -5
right_child=-2 2 -4 5 -6 -7 7 -9 -10 -11
leaf_value=-0.10045966807807859 0.017451952911390615 -0.10002754269716313 -0.10011384550304392 -0.10000263209592562 -0.10006848174511861 -0.10000289151795644 -0.10000264245656257 -0.10000263852556519 -0.10000264013764036 -0.10000263351953165
leaf_weight=0.01016679362510331 0.22386985877528787 0.00853322321199812 0.0079512197989970446 0.0011848569811263579 0.0067643432121258238 0.0010609394703351418 0.0050458252808311963 0.0080045788236020599 0.0022717579449818004 0.001001248294414836
leaf_count=21 24 31 7 45 17 37 191 303 86 38
internal_value=0 -0.100122 -0.10004 -0.100022 -0.100046 -0.100003 -0.100003 -0.100003 -0.100003 -0.100003
internal_weight=0 0.0519848 0.041818 0.0338668 0.0152976 0.0185692 0.0175083 0.0153222 0.00731758 0.00218611
internal_count=800 776 755 748 48 700 663 580 277 83
is_linear=0
shrinkage=0.1


Tree=70
num_leaves=14
num_cat=0
split_feature=0 4 1 4 0 1 0 3 0 0 0 1 1
split_gain=0.053892 0.0920991 0.047213 0.00256434 3.96737e-05 9.82015e-06 9.59372e-07 2.0875e-13 2.38351e-15 3.46945e-18 1.73472e-18 1.73472e-18 3.46945e-18
threshold=986557.40761462634 1.8784608347338012 37457.623914265831 1.8149796497408255 959670.81293466047 2692.6951702602269 900192.02515728585 6.5000000000000009 425309.25032561453 272908.09128265065 195179.05371561149 18445.440778951455 12238.67829761635
decision_type=2 2 2 2 2 2 2 2 2 2 2 2 2
left_child=1 3 4 -1 5 -3 7 -7 9 10 11 12 -9
right_child=-2 2 -4 -5 -6 6 -8 8 -10 -11 -12 -13 -14
leaf_value=0.036256344450123705 0.10023235216780578 -0.10308175927013663 0.046032919673031546 0.069844620840912433 -0.10570508619656677 -0.10000372202972348 -0.10119950992895524 -0.10000238942523171 -0.100002547058611 -0.10000239011713341 -0.1000023894994081 -0.10000239049816562 -0.10000238952793404
leaf_weight=0.04234789134352468 0.04163135401904583 0.032777853351944941 0.025998267927207053 0.049066124483942986 0.051058821380138397 0.0013051462137809713 0.011712439358234406 0.0079122234146780102 0.0010370214495196714 0.0013386040027398858 0.001410278511684738 0.0011233532804908472 0.0015059487632242971
leaf_count=49 18 83 8 4 1 39 1 331 41 56 59 47 63
internal_value=0 -0.0234713 -0.0752864 0.0542847 -0.103655 -0.101914 -0.100515 -0.100003 -0.100002 -0.100002 -0.100002 -0.100002 -0.100002
internal_weight=0 0.228594 0.13718 0.091414 0.111182 0.0601229 0.027345 0.0156326 0.0143274 0.0132904 0.0119518 0.0105415 0.00941817
internal_count=800 782 729 53 721 720 637 636 597 556 500 441 394
is_linear=0
shrinkage=0.1


Tree=71
num_leaves=9
num_cat=0
split_feature=0 3 1 4 4 0 1 0
split_gain=0.0526834 1.31162e-07 4.36749e-09 1.29866e-09 5.96278e-10 2.93689e-15 1.9082e-17 3.46945e-18
threshold=900192.02515728585 5.5000000000000009 37457.623914265831 1.8784608347338012 1.3751372382004565 444759.38541909173 2692.6951702602269 294484.87981323327
decision_type=2 2 2 2 2 2 2 2
left_child=1 -1 3 4 -3 6 -5 -8
right_child=-2 2 -4 5 -6 -7 7 -9
leaf_value=-0.1004538808940873 0.017386860042744947 -0.10002583873608106 -0.10010784614299205 -0.10000214960367362 -0.10006672794733595 -0.10000233596766311 -0.10000216147502528 -0.1000021632214939
leaf_weight=0.0096353203407488763 0.20636346051469445 0.0080063102359417826 0.0075335334986448279 0.00159034366515698 0.0064311717578675607 0.0010195358281634989 0.011506597866173252 0.0010814436609507547
leaf_count=21 24 31 7 74 17 44 532 50
internal_value=0 -0.100125 -0.10004 -0.100023 -0.100044 -0.100002 -0.100002 -0.100002
internal_weight=0 0.0468043 0.0371689 0.0296354 0.0144375 0.0151979 0.0141784 0.012588
internal_count=800 776 755 748 48 700 656 582
is_linear=0
shrinkage=0.1


Tree=72
num_leaves=16
num_cat=0
split_feature=0 3 0 0 0 3 1 4 1 4 0 0 1 1 1
split_gain=0.0473332 0.0841216 0.0390333 4.50725e-05 8.10011e-07 7.6445e-08 2.2046e-09 9.5078e-10 6.16756e-10 1.21985e-10 6.1149e-16 4.04191e-16 2.60209e-18 1.73472e-18 4.33681e-19
threshold=986557.40761462634 11.500000000000002 900192.02515728585 959670.81293466047 900192.02515728585 5.5000000000000009 37457.623914265831 1.9088539696035551 33363.780447196295 1.8784608347338012 250568.65532320799 308834.68491953332 3231.6464376421195 4302.2185866248274 9127.3586941480262
decision_type=2 2 2 2 2 2 2 2 2 2 2 2 2 2 2
left_child=1 2 5 4 6 -1 7 -3 9 -7 13 12 -9 -11 -15
right_child=-2 3 -4 -5 -6 8 -8 11 -10 10 -12 -13 -14 14 -16
leaf_value=-0.1004106166380959 0.10020657810882921 -0.10005055646111163 0.050328592833317511 -0.10522284346940003 -0.10110307710310813 -0.10002336727413941 -0.10009757513971407 -0.10000194732987705 -0.1000939143176435 -0.10000194878300456 -0.1000020372297707 -0.10000201931836811 -0.10000195232292519 -0.10000195180351279 -0.10000195271876465
leaf_weight=0.008721963909920305 0.037030757870525122 0.0079253044095821679 0.11074562557041645 0.047172233462333679 0.010791357606649399 0.0051387891144258901 0.0058431280776858321 0.0010714059135352727 0.0010132492461707452 0.0011900819044967648 0.0010128761659871088 0.0010051056378870271 0.0061061162577971118 0.0019766725490626413 0.00135032601065177
leaf_count=21 18 26 4 1 1 22 6 55 3 61 50 50 312 101 69
internal_value=0 -0.0223688 0.0269118 -0.103244 -0.100394 -0.100187 -0.100045 -0.100026 -0.100019 -0.100012 -0.100002 -0.100002 -0.100002 -0.100002 -0.100002
internal_weight=0 0.211064 0.13115 0.0799147 0.0327424 0.020404 0.0219511 0.0161079 0.011682 0.0106687 0.00552996 0.00818263 0.00717752 0.00451708 0.003327
internal_count=800 782 331 451 450 327 449 443 306 303 281 417 367 231 170
is_linear=0
shrinkage=0.1


Tree=73
num_leaves=11
num_cat=0
split_feature=4 0 1 3 0 1 0 3 0 0
split_gain=0.0465987 0.0757026 0.0422117 0.00157475 1.7511e-05 8.32008e-06 5.24916e-07 5.88071e-14 5.29091e-16 1.73472e-18
threshold=1.8784608347338012 986557.40761462634 37457.623914265831 5.5000000000000009 959670.81293466047 2692.6951702602269 900192.02515728585 7.5000000000000009 359398.17439085036 241286.85356148923
decision_type=2 2 2 2 2 2 2 2 2 2
left_child=3 2 4 -1 5 -2 7 -7 9 -9
right_child=1 -3 -4 -5 -6 6 -8 8 -10 -11
leaf_value=0.069477304507109677 -0.10301831818672258 0.1001868810713416 0.047655161133133471 0.041843250154212232 -0.10470120584388631 -0.10000247027423842 -0.1009970059805963 -0.10000176697092569 -0.10000184222700897 -0.10000176915300428
leaf_weight=0.043207227718085051 0.031249744835804449 0.031651230878196657 0.023019795073196292 0.039450055963243358 0.042885001748800278 0.0013807320974592594 0.009774157777428627 0.0081458505865157349 0.0010445557363709676 0.0010093540768139073
leaf_count=4 83 17 8 50 1 62 1 460 57 57
internal_value=0 -0.0372041 -0.0738983 0.0562883 -0.103201 -0.101979 -0.100457 -0.100002 -0.100002 -0.100002
internal_weight=0 0.15016 0.118509 0.0826573 0.0954894 0.0526044 0.0213547 0.0115805 0.0101998 0.0091552
internal_count=800 746 729 54 721 720 637 636 574 517
is_linear=0
shrinkage=0.1


Tree=74
num_leaves=9
num_cat=0
split_feature=0 3 1 4 4 0 1 4
split_gain=0.0430982 8.80627e-08 2.64381e-09 7.62212e-10 3.71055e-10 7.45931e-16 3.29597e-17 5.20417e-18
threshold=900192.02515728585 5.5000000000000009 37457.623914265831 1.8784608347338012 1.3751372382004565 389951.32396475028 2908.3289878177825 9.8287560302516699
decision_type=2 2 2 2 2 2 2 2
left_child=1 -1 3 4 -3 6 -5 -8
right_child=-2 2 -4 5 -6 -7 7 -9
leaf_value=-0.10040299281490793 0.016583424814851953 -0.1000220591005469 -0.10009259412374315 -0.10000159322036542 -0.10005696795437116 -0.1000016974776534 -0.10000161036398747 -0.10000160338351929
leaf_weight=0.0083547862450359389 0.17981242889072746 0.0068351932131918147 0.0064696326153352848 0.0013028007633693059 0.0054908695165067911 0.0010113606476807044 0.0079315991242765449 0.0010093372875417126
leaf_count=21 24 31 7 82 17 60 495 63
internal_value=0 -0.100116 -0.100036 -0.10002 -0.100038 -0.100002 -0.100002 -0.100002
internal_weight=0 0.0384056 0.0300508 0.0235812 0.0123261 0.0112551 0.0102437 0.00894094
internal_count=800 776 755 748 48 700 640 558
is_linear=0
shrinkage=0.1


Tree=75
num_leaves=12
num_cat=0
split_feature=4 0 1 4 0 1 0 3 0 3 0
split_gain=0.042333 0.0669994 0.0391255 0.00134391 1.27772e-05 6.133e-06 3.86311e-07 3.15095e-14 1.85615e-16 2.60209e-18 4.33681e-19
threshold=1.8784608347338012 986557.40761462634 37457.623914265831 1.8149796497408255 959670.81293466047 2692.6951702602269 900192.02515728585 7.5000000000000009 322075.71836263937 12.500000000000002 131621.77280759369
decision_type=2 2 2 2 2 2 2 2 2 2 2
left_child=3 2 4 -1 5 -2 7 -7 9 10 -9
right_child=1 -3 -4 -5 -6 6 -8 8 -10 -11 -12
leaf_value=0.041651875486515756 -0.10278349643755845 0.10016627904281022 0.047189960970910189 0.068003681873737801 -0.1043046698370011 -0.10000202100634209 -0.10091630064290635 -0.1000014510589792 -0.10000149821975582 -0.10000145431031351 -0.10000145041235345
leaf_weight=0.037340089926146902 0.028651966606958013 0.028174518374726176 0.021690503926947713 0.040175982750952244 0.039566915482282639 0.0011302719567538597 0.0089973239228129387 0.0021602597716992022 0.0010291929547747714 0.0041610822263464797 0.0010003477937061689
leaf_count=50 83 17 8 4 1 62 1 149 69 287 69
internal_value=0 -0.0372164 -0.0729279 0.0553098 -0.10298 -0.101867 -0.100447 -0.100002 -0.100001 -0.100001 -0.100001
internal_weight=0 0.136562 0.108388 0.0775161 0.0866974 0.0471304 0.0184785 0.00948115 0.00835088 0.00732169 0.00316061
internal_count=800 746 729 54 721 720 637 636 574 505 218
is_linear=0
shrinkage=0.1


Tree=76
num_leaves=9
num_cat=0
split_feature=0 3 1 4 4 0 1 1
split_gain=0.0394065 7.93538e-08 2.12599e-09 6.30277e-10 3.45341e-10 3.71231e-16 1.38778e-17 8.67362e-19
threshold=900192.02515728585 5.5000000000000009 37457.623914265831 1.8784608347338012 1.3751372382004565 334073.33347362798 2908.3289878177825 17493.564622250917
decision_type=2 2 2 2 2 2 2 2
left_child=1 -1 3 4 -3 6 -5 -8
right_child=-2 2 -4 5 -6 -7 7 -9
leaf_value=-0.10039547854690818 0.016676214314846696 -0.10002080684766333 -0.10008782198016045 -0.10000129935869549 -0.10005538006562359 -0.10000137362026978 -0.10000131164194082 -0.10000131123865777
leaf_weight=0.0079500716965412721 0.16586197691503912 0.006447803825722076 0.0061368526658043257 0.0010378955776104704 0.0052347155287861824 0.0010244243867418854 0.0061396556002364377 0.0010100419758600765
leaf_count=21 24 31 7 80 17 75 468 77
internal_value=0 -0.100118 -0.100036 -0.100021 -0.100036 -0.100001 -0.100001 -0.100001
internal_weight=0 0.0349815 0.0270314 0.0208945 0.0116825 0.00921202 0.00818759 0.0071497
internal_count=800 776 755 748 48 700 625 545
is_linear=0
shrinkage=0.1


Tree=77
num_leaves=11
num_cat=0
split_feature=4 0 1 3 0 1 0 3 0 0
split_gain=0.0385452 0.0593156 0.0362891 0.00110844 9.35717e-06 4.52359e-06 2.83424e-07 1.20346e-14 9.19403e-17 8.67362e-19
threshold=1.8784608347338012 986557.40761462634 37457.623914265831 5.5000000000000009 959670.81293466047 2692.6951702602269 900192.02515728585 8.5000000000000018 275403.01001280447 42056.817273616034
decision_type=2 2 2 2 2 2 2 2 2 2
left_child=3 2 4 -1 5 -2 7 -7 9 -9
right_child=1 -3 -4 -5 -6 6 -8 8 -10 -11
leaf_value=0.066371930551471905 -0.10256621143484837 0.10014794361064089 0.046756456320822426 0.041669285560137603 -0.10394351054364714 -0.10000152928688975 -0.10084226931230023 -0.10000118759329424 -0.10000122003949828 -0.1000011875108013
leaf_weight=0.03743137267883867 0.026283597127985558 0.025076762307435274 0.020439207146409899 0.035290292886202224 0.036499623209238052 0.0012694853421635335 0.0082825822755694389 0.0014125735515335691 0.0010206883034697967 0.0040596409826321178
leaf_count=4 83 17 8 50 1 91 1 119 84 342
internal_value=0 -0.0372687 -0.0719826 0.0543843 -0.10277 -0.101759 -0.100435 -0.100001 -0.100001 -0.100001
internal_weight=0 0.124344 0.0992674 0.0727217 0.0788282 0.0423286 0.016045 0.00776239 0.0064929 0.00547221
internal_count=800 746 729 54 721 720 637 636 545 461
is_linear=0
shrinkage=0.1


Tree=78
num_leaves=9
num_cat=0
split_feature=0 3 1 4 4 0 1 0
split_gain=0.0361837 7.10891e-08 1.72996e-09 4.92317e-10 2.89874e-10 1.50054e-16 4.33681e-18 8.67362e-19
threshold=900192.02515728585 5.5000000000000009 37457.623914265831 1.8784608347338012 1.3751372382004565 304366.36039287708 3341.1079110879978 154074.89553602703
decision_type=2 2 2 2 2 2 2 2
left_child=1 -1 3 4 -3 6 -5 -8
right_child=-2 2 -4 5 -6 -7 7 -9
leaf_value=-0.1003856481590054 0.016809678000124458 -0.10001962776252099 -0.10008326097643216 -0.1000010683285866 -0.1000522404004982 -0.10000111529852976 -0.10000107532875686 -0.10000107509868424
leaf_weight=0.0076181932199688154 0.15306107327342033 0.0060824746324215084 0.0058186704409308723 0.0010414256275907965 0.0049381423159502447 0.0010208077364950441 0.0040707531270527397 0.0014070071056266897
leaf_count=21 24 31 7 98 17 92 379 131
internal_value=0 -0.100119 -0.100036 -0.100021 -0.100034 -0.100001 -0.100001 -0.100001
internal_weight=0 0.0319975 0.0243793 0.0185606 0.0110206 0.00753999 0.00651919 0.00547776
internal_count=800 776 755 748 48 700 608 510
is_linear=0
shrinkage=0.1


Tree=79
num_leaves=10
num_cat=0
split_feature=4 0 1 4 0 1 0 3 0
split_gain=0.0351703 0.0525266 0.0336784 0.000942939 6.87885e-06 3.3401e-06 2.07315e-07 6.50695e-15 3.81639e-17
